#hidden: 51
#output: 10
0.038743470792535026 0.07618833429519932 0.07333679836517319 0.07377173997331542 0.059624611236124635 0.056643059453799126 0.0461421572603649 0.05646079457438019 0.06197186257039304 0.04312170060639172 0.05584442642017775 0.041727322353971606 0.06852837756833487 0.030550432216961458 0.0188671012023024 0.007022872605917102 0.05713790879485451 0.07901687604476743 0.028088552002102647 0.052827894830463046 0.034101453062590825 -0.00042166371596669003 0.04073452133988759 0.03292610465838987 0.05313135237407502 0.06971047121512895 0.024691407247929786 0.03641729635815614 0.0449791661946185 -0.047463160152997425 0.0017898128165114754 0.005030517018905838 0.0646263780135731 0.02298761736847333 0.01951772378142701 0.05476537221337072 0.006512950129946355 -0.019516642457759126 -0.024667666046888942 0.003427092189557157 0.008580577589304219 -0.000565442314012062 -0.040257781683814026 0.0023315226518446828 0.01235521130841283 0.02105385098982043 0.030193632753355515 0.0323643209199639 -0.024803448024833672 -0.02933033443683907 -0.023590147540545003 -0.008202368910556439 0.008003073962623102 -0.0023019914354764515 -0.003151194352887035 -0.006076593951860693 -0.0037681283100098645 -0.04573626698508703 -0.04463921611102151 -0.02431903955954205 -0.012517817393200698 0.02712793024187059 0.011707846933507945 -0.006633469792060544 -0.06452063574134843 -0.030944078067347124 -0.02888578313453873 -0.023349242733782458 -0.018413492521055536 -0.035341809155050176 -0.045279084493691564 -0.0004956047104219222 -0.027521171922979152 -0.022540501325025074 -0.031772551662602934 -0.012603332468451564 0.0065737038212584035 -0.0086632557722989 -0.018377749228382503 -0.027520803475776456 -0.058221236183587544 -0.05801075548328557 -0.0003864741690033598 0.016494576749669938 0.004189443471530072 -0.04741316360575051 0.01193097765276751 0.022304995942557432 0.006640539967672709 0.007711190999616699 0.007765242748074271 0.013015575711141614 0.006773744044625787 -0.043552662031797786 -0.04729538110652289 -0.06110203351768917 -0.031605489105536066 -0.018529298374143445 -0.007026680993210157 -0.004001686831744344 0.03695499105724351 0.014313087420366931 0.03137778235368069 0.028087536111993928 0.016653995256140156 0.025969735101839 0.0609481025727353 0.04076265259416587 0.005432923866329998 -0.00797455783224619 -0.06092439117975708 -0.024941860918170966 -0.01361141723243556 0.005813154640484546 0.010195571009470477 0.03971922595904633 0.030865304248698062 0.01941216443790544 0.07097194463742211 0.05361984435664983 0.05742834640952633 0.06243244281029943 0.030621745283656514 0.0253443905223738 0.006146052593098874 -0.005317663110296815 -0.0025652351174625682 0.006415925206723094 0.0145774707786021 -0.009477587716247736 0.006592757373771211 0.015859384863564335 -0.015827153167644645 0.02007469618683826 0.0301986389232244 0.03963376607734066 0.03392593648722042 0.051593568949267546 0.06379986943323979 0.0488360344139959 0.04083123723641551 0.03375654388052067 0.057294630834453894 0.03952432740389692 -0.01904181933352506 0.01565620392026926 0.03662141257544348 0.010672885830052863 -0.008244343693750223 0.014136349228492178 0.015415929677782665 0.04304654708661884 0.03204545170905188 0.04162161276244025 0.022338627129543532 0.013880083197910467 0.008146282545715863 0.027716490088988657 0.07210479733720086 0.0378762510234893 0.002989252922220125 -0.005262512114444492 0.030538172128049716 0.03775490152925655 0.018050612066033995 -0.046786114718162616 -0.05340298383681755 -0.03214922647421835 0.004742824899692558 -0.007492726213248729 0.03368238046065468 0.05296934783553192 0.013054820231873534 0.043267618760146814 0.06664169957047653 0.03227113422089569 0.00970734842132427 0.028060153691200237 0.005961418980481289 0.009224418818156594 0.00021895821138566472 -0.060865247395400036 -0.07086347737644012 -0.03288319830129271 -0.036289346478467516 -0.021157737075016378 -0.0062810489351319675 0.02556583049235727 0.02625351561630582 0.015188393561415365 0.05087529893440569 0.030923731759729362 0.0069723817590823 0.02035076914349534 0.0274736012369297 -0.02089303274549562 0.022706545948753435 -0.04559353469178468 -0.05810672219498134 -0.012955992619964867 -0.06920304819143651 -0.0240481616537326 -0.0022421470047284007 0.011887304431212312 -0.010762422544610229 0.038797400675554115 0.002505906995633778 0.019971782839440247 0.03002388267543355 -0.0012523804774036192 -0.02564472456298216 -0.034610511099802496 0.0022014045645752014 0.009553125347132901 0.0009398208504870162 -0.008626302529801589 -0.039676366520586474 -0.016021312442757854 -0.03774666422181825 -0.041120834248666895 -0.0005450205325240771 0.023676624110602326 -0.009382312466923833 0.004962120380708643 -0.013781912950491764 0.0023173064390650585 0.017103947396464012 -0.022771856258095913 0.006058914479556155 0.04412516070785939 0.0170868743996043 0.042892258838920366 0.0019214287332670105 -0.017116833916229125 -0.023434915310714517 -0.015621931963428216 -0.07095673161894994 -0.053614912960764836 -0.0858797988963822 -0.0670410693377515 0.004107314629424876 0.010687323584402279 0.061638810225399965 0.016100058778434363 -0.008774445711675521 0.027460897044631047 0.000517100447479676 0.0076251912250490895 0.04656016203859792 -0.005005633515056957 -0.02584738230043171 -0.021322961886705426 -0.03793784476868075 -0.06050924547894253 -0.06542915653758899 -0.03393595664654579 -0.017757302203893956 
0.006717544949368671 -0.01669227112644777 -0.030623929087025218 -0.0012010304888271438 -0.012483383275946692 -0.013524540087750492 0.00704310609051644 -0.02558761865993733 -0.031583155894258315 -0.0437221239488195 -0.05099885043298708 -0.009817422898095103 -0.012543651460933707 -0.007440314646621277 -0.0001883920973642611 0.02215283524447722 -0.00702626786706736 -0.02112249188687167 -0.02037384924038441 -0.011670250811605812 0.003997034218604259 -0.005668889887125713 -0.012673883923598493 0.0025151693705589245 -0.014484494052540712 -0.008311308750570541 -0.02100612345515623 -0.011657652162329878 0.0042488271202657515 0.011501504708417428 0.005025744027760431 -0.017200836328882703 -0.029213586473376192 -0.01117641529013644 -0.019419532877557422 -0.011251416178451159 0.011384696909359405 0.0051927582759609524 -0.0024428136793046592 -0.00468532344953814 0.008868777187619704 0.0027232112447743073 0.002708251295439963 -0.005591847020971792 0.004306520818752451 -0.019627088373409533 -0.0019527592616466363 -0.02195191944700247 -0.004148381337170917 -0.02487173862947509 -0.02282922940860017 -0.024184935452030338 -0.017763007052563375 -0.013507893187275476 -0.011963955249275996 -0.00976600807278061 0.013060462864707429 0.004914819734816543 0.009668733331299889 0.020284836448592018 -0.003116360498430879 -0.01598464643512527 -0.012291769517152457 -0.009206696212579222 -0.007218743253116821 -0.006046000290383831 -0.016677501904044528 -0.009273894689147145 -0.01156771756331874 -0.021000361053929786 -0.002601982787536285 0.0025113845365117415 -0.003974945961943237 0.019826352631020977 0.0027494635031693605 -0.007324676441328116 0.009945777035718743 -0.017550865765047125 -0.02037158267637816 -0.010635401369628662 -0.006984152366823621 2.48827374712467e-05 -0.009559992332336004 -0.005357447098107107 -0.015871737569735086 -0.005043175752244734 0.022789644429943516 0.007077397204838742 0.0038892986111561953 0.0075822566106525805 0.002942039591850529 -0.00888346566016027 0.0032429666051517598 -0.022660971100270693 -0.004186016421524308 0.005365700211048942 0.0069469033414638936 0.020423741774001712 0.011282866691051326 0.023700693692595646 0.022164936019467615 0.012822046100573593 0.04549247796634 0.02921990712986652 0.020140944185958166 -0.018987329084851613 -0.001350722332306676 0.006717514712720148 0.01578432824223193 -6.945679381306063e-05 0.042572376925120205 -0.0032568861743713846 0.023697137415457214 0.027240858778347934 0.020016412037135792 0.004261103777895411 0.01633401954276766 0.003329862839890874 0.01651150270026261 0.009520363629050715 0.008546124894581111 -0.018490001688929225 -0.02246273311235106 -0.007831813523176433 0.011776528022547902 0.017544062607114885 0.009468865587677908 0.01946778409673819 0.029102119948111432 0.025432850487332757 0.01891232204730398 0.0015096519442750077 0.0022110609321638955 0.006228327422993793 0.004442318918684588 0.003339237316940076 -0.015179637345191593 0.012769255272587392 0.010392363694313955 0.015381255250334767 0.01682670381695826 0.010949771104894956 0.01856431350764563 -0.010614262921644078 0.02471727920295527 0.006380588460685249 0.008092954228782236 0.010300058179069255 0.029269077532200753 -0.007948139496793948 0.012372041693319309 0.024715551806253656 -0.008740293985310912 0.030168797254435158 0.03392743043834348 0.03491461110969393 0.039121153005994086 0.006665921162376149 0.010767560252339829 0.024390516319229266 0.014877308080017086 0.011174952974736299 0.028989099747483916 -0.006121972921725353 0.019794714127122345 0.01978634272220605 0.01890649897762842 -0.0036544857174850903 0.024676788531230037 0.015830286118588548 0.023065308270897103 0.03083086020542262 0.03140780349459419 -0.00482077898464549 0.020742203024402422 0.012043936717199442 -0.009322181605445665 -0.0005485039181509746 0.013740095885194491 0.023955092769254293 0.012971799648336712 0.027001367002754927 0.03263758619108809 0.025905068071928043 0.04263301539038579 0.03131960514551106 0.0265533839046101 0.03137353325065403 0.02453592112173848 0.018062125969683575 0.01885969995068677 -0.0033736709177077727 -0.0024452643997851385 0.00787788633912393 0.01663420969351763 -0.0016762909454100853 0.008177963465938281 0.008787366336404843 0.024126389508025516 0.007708395542104439 0.05364327069488484 0.02720618788105408 0.029322604710502628 0.012673651041181736 0.02032199283565837 0.006495370868681288 -0.0024237816305909413 -0.006504164240114577 0.015464109217252855 0.011864612315301077 -0.0024747656130670098 -0.004079056645032497 -0.004002813049237924 -0.006045948338044379 0.011164442213401746 -0.006383986199222546 0.010206556206309735 -0.013277916736106898 0.005687233397016029 0.01391858581798957 0.017641835747485908 0.021412739437345143 0.016585562856556272 -0.0026640744959011836 0.019514144680774875 0.0027684051626828674 -0.0168922964772103 -0.018358961782342652 0.01121684767987551 -0.01008108313398334 -0.012716142768279393 -0.03052601868136613 -0.022463847720188692 -0.022764048384380602 0.0131875670271113 0.007968276209815679 0.007052712953633881 0.00746056608619452 0.01675406837834925 -0.004391853899659689 -0.021522920497547598 0.004151124498237981 0.010732058958249467 0.0028799824660298346 -0.03785591408820554 -0.01316610274341876 -0.01370672561240097 0.003901311038451493 -0.01569187657236904 0.003968896992917959 0.00445405698422352 0.0026165649751658544 0.011622957986144069 0.003942733654476645 0.013456908637416203 0.007643755635365273 0.03631957862522085 
0.1057788734738016 0.0915637432191313 0.027159434183822693 0.10656821902050491 0.06352083295373692 0.05216107800685827 0.06203903453971618 0.03232345776948389 -0.011570422227416464 -0.014883164022709394 0.006502715372308621 0.026853093938255555 0.08571677695676999 0.019032081285203947 0.06396924917716794 0.08148575273175733 0.06423994838132854 0.08504341769069296 0.10144907096905775 0.08198448836948644 0.09039423014595957 0.0964599205737497 0.08807262985230498 0.09434902716624967 0.03134257376873696 -0.0085999812360103 0.015093795519606941 0.04832120242084729 0.05703725013920957 -0.04950548078856047 -0.07184599114177898 -0.010186497623024194 0.08514163772121038 0.08983236036566992 0.0750030189871454 0.10473896438079187 0.09405117147157453 0.07589425968073049 0.08655919464618013 0.03644625677667092 0.05790621755523159 0.02125675851116785 0.05708786593108183 0.020544327289439394 0.03367236043377827 -0.05955395114785916 -0.06642007036619978 -0.08962781548419854 0.01422935027417828 0.05434772295388619 0.026056716843038917 0.0632344821428056 0.03466402575445318 0.031331974343774806 -0.00023173199016140496 0.01799561758086349 0.006533943318161653 0.02122878578502592 0.015868811299507304 0.002040713405574031 -0.014225439223975976 -0.06884216231315651 -0.10699206519609378 -0.07953488420903446 0.04631852998024581 0.04644550127985212 0.018839924558807206 -0.002217092291568732 -0.06102139365026653 -0.03322631050572002 -0.05457627305509523 -0.003576262123750541 -0.022452172318068314 0.0009536285788246319 0.013708003959374044 -0.06635458414990343 -0.029353957040341244 -0.07944929353840459 -0.1416913278635667 -0.051029024366833854 0.057944499347958506 0.05783862053454107 -0.044070620348014886 0.01378029377658093 -0.06098749850850468 -0.08663511905847986 -0.04180159910295858 -0.032751695611016984 -0.06332015200457235 -0.059133246098054724 -0.07087993215412028 -0.10448407050142726 -0.07744914834460177 -0.05783172481262202 -0.08603908315251947 -0.014071515796149854 0.04148845364411986 0.05969517788307363 -0.005250068303121248 0.031989973740891964 0.017069258278226754 -0.0321792794043409 -0.05267118415812798 -0.016173826964383072 -0.06786386678316184 -0.05473774804574936 -0.04250211904849068 -0.029371748374425802 -0.00798755092882069 0.012606565979132645 0.033785501599280066 0.018183292570093622 0.0719178981754605 0.060345541304503425 0.07979263218777186 0.02751423418896307 -0.020902995732058036 -0.08592710217856202 -0.08389104314141602 -0.023775974019556438 -0.05351513304007308 0.02436826017032466 -0.02883925772950538 0.04447321972624422 0.032239948967016284 0.07361538529881913 0.09733779098109757 0.05970187229359657 0.07887418974996696 0.10377202630722741 0.0825983853882213 0.07243164728520479 0.0394839799751953 -0.02492078066070079 -0.02507025622375138 -0.029785549502580187 -0.02759420020722204 0.03590775866229383 0.04869276995560098 0.0813130212179147 -0.016238040620851487 0.02210542306837163 0.03446015301480742 0.03485245520460755 0.0929540585112653 0.08392475559527324 0.11031507345603069 0.07456520117024769 0.032258136869017975 0.026645705435035846 0.04441140297531743 0.06514103559105017 0.12164322945325287 0.1006530154244824 0.10591814883548237 0.08926009366136113 0.07262494157706986 0.041247908786105125 0.012775804419687516 0.02124638669993062 0.07574578038758926 0.08649142376051029 0.0980708761335776 0.06968737874250706 0.04123109311192531 0.03942659597291641 0.0639378562844775 0.07014035317019024 0.10851701126482108 0.11115868822509815 0.06350173419768003 0.08999965540642167 0.07168103212180299 0.025323430144389918 0.03804056356814084 0.03303996287428817 -0.014500472680224672 0.03878200945307765 0.049421988608291806 0.0037575201737915917 0.04683197443250585 0.07282238184436286 0.06691942828632193 0.07756635951896332 0.05019649718807856 0.020482475909510203 0.05148332538538484 0.06685217335981446 0.02304757877898177 -0.016115560469410078 -0.008883095520561645 0.0055085098015319545 0.0206238439941997 0.009235649781561847 0.06027353708215679 0.03575514266531138 0.03767339233630695 0.01858688146282507 0.012712137753417601 0.039676020874674166 -0.004277725154261971 -0.014987127073024806 0.024399642266164367 -0.004565112549475927 -0.06257269646172721 -0.08108051295588412 -0.05633772195116186 -0.008048544749577996 -0.02291810766088702 -0.004199991946913833 -0.0414402388398061 0.010431362028162222 -0.002173620391330122 0.007083088666784383 -0.008382228639839846 0.007876946463225397 0.00020186244803000795 -0.055682897466955705 -0.006216489302690621 -0.02017564919626891 -0.018172051510542745 -0.014188404320128837 -0.05028116214323097 -0.014349012026661253 -0.026546367006124234 -0.038431293348036834 -0.017000271444841192 -0.01936351588198337 -0.08947614493050732 -0.011269997897605083 -0.039511990595125744 -0.07659225919850192 -0.06524786591782002 -0.09879398223915037 -0.07625208922056055 -0.07471533065073915 -0.04939283903440655 -0.024089199976055114 -0.032192837999369006 -0.008870346890122735 -0.011404608352392114 -0.004510552245989268 0.030673933456321256 -0.038596453406989174 -0.06544089555048367 0.06844621726017824 -0.06181136652963257 -0.018480782943336802 0.006912006878155272 -0.06470559190710998 -0.03174953278598635 -0.02919060213403031 0.004450975495635257 -0.001839871019462765 -0.011034661215011897 -0.01281537933020621 0.0894602456047736 
0.10755503995982177 0.09178194504488069 0.045174084703014934 0.10868363140793924 0.09766978471364013 0.06273708971789821 -0.02474693233032098 -0.013345611098757846 -0.00802829631370694 -0.02107192032410884 -0.005328737356105662 -0.029504236854580795 -0.07169072063877326 -0.00563519572595713 -0.010126145337692353 -0.05893832307479446 0.04998229336617882 0.08339434789092152 0.059231820861338554 0.07098659577153195 0.0684560017879422 0.06244248424214235 0.07724973872371775 -0.05228573621454965 -0.04162550417510371 -0.031857713732525134 0.018800645454371726 0.028362147783892143 0.05132675097339032 -0.03764800521705662 -0.0036979313297820756 -0.0009273479071974939 0.12030762203629748 0.06010493128534225 -0.006032867933182113 0.11653115496789662 0.008477561981319291 0.042002192148259884 0.03466077020987088 0.00731937592566416 0.07572535136523653 0.017288158146713885 0.0100313236843751 0.05343002276138329 0.05479264749793989 -0.0038461222193213007 -0.007616385782613396 -0.03702316380792897 0.04429420667138761 -0.07384812398075984 -0.07260249866948733 -0.0703047087289281 0.0007274220956259137 -0.0447809300462586 -0.01686753976289228 0.013978881113673952 -0.03756374770073337 -0.005852650736745541 -0.009712537338283433 0.09521218446283253 0.02526912917922959 0.025103561103928012 -0.06299210752530737 -0.080097698803895 -0.09973632389653685 -0.1665958206644845 -0.07017822322491762 -0.09600083933930136 -0.009823578826239344 0.009717638134957334 -0.03898665873700732 -0.06628253562646934 -0.06726877847884825 -0.03971514231837645 -0.0011436536054806063 0.00864895077095252 0.026701431198872937 0.0034668413328060874 -0.09143997496922063 -0.03205805723436883 -0.13139605079467345 -0.11416814408581583 -0.07612509736327269 -0.02671476645248664 -0.028721585758134324 -0.07546868317689731 -0.07677107881449624 -0.022532165646068136 -0.015759372738763076 0.038766651938739884 0.036101599092344054 -0.05055321002071657 -0.012628987277383813 -0.04020958053499508 -0.0680347317674781 -0.029786993303045566 -0.10244798629080328 -0.12503045563354467 -0.0906507737621138 -0.10121320200780011 -0.03532529506363705 -0.05147392514823526 0.03953085408078016 0.043796492206241586 0.05778482811447731 0.01323635720533426 0.08025397993530617 -0.001651904986344183 0.042234838087187976 -0.02952564243422034 -0.06374474572534225 -0.062491612681744066 -0.05858239865035385 -0.0238910273110737 0.018233557969694253 0.0581419780167489 0.035892391581363786 -0.005124590235893211 0.03677702985083037 0.07199087505047878 0.02710625806878081 0.024868422110214807 0.12370617489016238 0.12426742971880744 0.02358029171742041 0.003225486539543358 0.041040656885613216 0.023796291932861882 0.03542433657766769 0.046950764290664575 0.06798002051593847 0.04806356468093255 -0.01203154865410295 0.07040046317539536 0.06611123542867252 0.129410458813181 0.12282323351543215 0.12216990304025112 0.11945630824371792 0.0894150634596626 -0.03286079992242307 0.027122432970569432 0.04286037548285336 0.03857499004174228 0.02396468293783292 0.13669193444341704 0.17755284584399253 0.1264648311161879 0.08457556102941462 0.07348173829995525 0.12198654021898245 0.09903020391872192 0.16256483914696568 0.11188701850471959 0.07982255438967126 0.0056991192773342475 -0.04814251387443052 -0.03320539958609401 -0.03137676340663386 -0.00994626464751886 0.12547681471474886 0.12931199456074471 0.17278007383115845 0.14541479089798018 0.15511549480833572 0.0671235894155237 0.05925815071382211 0.024575576111223046 0.04797934776791549 0.0775221103843728 -0.03608354459782538 -0.05802724285881725 -0.04171317919087394 -0.05557728588229344 -0.03547634355895628 -0.032600020695236105 0.07255117276673981 0.21467478986327063 0.20400265892444863 0.1901401693378645 0.11836105579134575 0.06824952738515284 0.041133778228073424 0.01699110738679187 -0.020759812361157662 -0.018589919613060998 -0.10269937168997603 -0.10618749800502257 -0.046523964593700555 -0.0547570181411606 -0.0657283909519835 -0.044247272219327935 0.07440769907806902 0.09753789660675583 0.1092148963659209 0.08433184151681772 0.07085840110811735 0.007241715060520806 0.0597430044164449 0.037222360290088165 -0.06586027623270298 -0.10724396983400765 -0.03474455724290514 -0.05263944592733466 0.002192568411637129 0.014590600408260226 -0.08129798293605085 -0.01655156896119947 0.039861992467431384 0.03948558884505137 0.025318658704690317 0.025621079008844385 0.027924215874480848 0.0383481842222159 0.10044651734506535 -0.008451032214211094 -0.08304843430969783 -0.0316034561864835 0.03688219685354933 -0.029752205684861137 -0.008154607974734196 -0.03902264974438048 -0.050647162175979296 -0.030832952988551973 -0.056787383898509264 -0.02522225437265987 0.022239719312829198 -0.012919013506186827 -0.015132596821496539 0.12379864515322789 0.10413534787193103 0.06790220366817463 0.023543827635454203 -0.008772522362363812 -0.06816494835159065 -0.02527641451006703 -0.021843586889601526 -0.012567442101892711 -0.030373118561540118 0.02180999059290407 -0.06891816577644472 -0.02171614798242554 -0.021654164064031062 -0.02514665460507302 0.04321050808567906 0.11678623136388498 0.02386322783581442 0.00940018790175812 0.06664474999128436 -0.010401084981012977 -0.03426580413855875 -0.054989861337508786 -0.03436700805581733 -0.03681815944376904 0.023741140162204175 0.00861222430488468 0.012381994637708954 
0.004421223609095089 0.022208209724067104 0.04561565443359874 0.013474867061255348 0.03858526024180239 0.048364723366246976 0.019534183737108978 0.06755745141214134 0.07222821905187518 0.040626794086500606 0.06089500676545802 0.020738404047867674 0.03293641397613295 -0.027940200420062525 -0.02723233787845228 0.009789902250481243 0.04622113877290319 0.0189700646954973 -0.0022631263033070443 0.005426192975369663 0.002825398345441448 -0.03277906834495358 -0.005663925593341075 0.0066395284607775025 0.015119501502199973 0.026025343074184217 -0.0056162543443450405 0.002790230774089174 0.007055364012714973 0.017456857129218108 0.03884874836443183 0.03087141252848328 0.004914870904898469 -0.016227446202398663 -0.0268366385942362 -0.02728386647620124 -0.017423307430601033 -0.048622174571312744 -0.044168229679077416 0.007485582213395282 -0.010376149518954478 -0.0007963553661156562 -0.03196052466597668 0.005122037608426911 -0.01509902576870256 0.03514378657564491 0.04707145631874544 0.06431820294635204 -0.045754249638043455 -0.03880487146162827 -0.008699859202827617 -0.032739503968658816 -0.03072709992604638 -0.040686953906381454 -0.03310156626749004 0.004490706191686721 0.04196860244418281 -0.0007144625237167427 0.0030479689104312537 -0.006270490658837514 0.024577711478425687 0.017656665074799172 0.0444840845370853 0.010769423956134661 -0.012561067025823701 -0.0024989963101258853 -0.04404481610805799 0.007655147786612808 -0.009272577476674811 -0.015516617320781507 -0.004307026749822124 0.04236775894849285 0.021552968545370792 0.02479784282883803 0.022868373129382533 0.05011431151262624 0.039855522880046054 0.03915992396297108 -0.0030655967014096438 -0.018567179357820707 -0.05314444296015499 -0.0068295823582547105 0.0013046664504915294 -0.03377046609423629 0.00600520106047686 0.01072823056664178 0.07312723084347007 0.048912986603636 0.037332993657781754 -0.0055652278256504185 0.03935284385222366 0.05992989564996876 0.0821903134766461 0.010347070933142502 -0.0237277160548985 -0.06020107776451751 -0.022345286487923912 0.019150545213763467 0.025717238873286787 0.03672821648020609 0.0320515354212255 0.01176323341597914 0.021877739234644603 0.04128947590630697 0.07114230638966569 0.03474029853519268 0.06185903970720233 0.09438145463673292 0.028200543060935924 -0.015913132368546246 -0.057113131374982175 -0.04964269640568973 -0.005356052050610613 -0.009262040086308505 -0.015032924069207714 0.029390428503152134 0.022687726895683238 0.0432244372044653 0.07759919354420046 0.04470944610868415 0.08510894024821061 0.052228003654261716 0.012219958688932015 0.004903903852243316 0.008530097558294026 -0.011529030536360906 -0.035476853927620074 -0.017460772635267744 -0.045499514050389434 -0.0882765649003716 -0.01682540097226246 -0.0206451237146542 -0.019757359696362314 0.005603783942828707 0.015255455970659672 0.05478908049048344 0.04754800848027944 0.06494801660170921 0.06132636386395524 0.00024365180890555002 0.05366015494111385 0.02709940187361285 0.022339861421637356 -0.019451284814999116 -0.07739772708559266 -0.06548557446622189 -0.07484605979689232 -0.06579732010862699 -0.05279621134332669 -0.023008706242760697 0.0015077078057267052 0.001202892939054 0.008621145970120652 0.01442319946401363 0.013487168453459463 0.020213849570728186 0.016575626446623824 0.024908553781112633 0.049748717875329265 0.02932078007701422 -0.0821570976398065 -0.09834206633409961 -0.05461855751617417 -0.035126102725484686 -0.033632969050776514 -0.031410407559923054 -0.0705546910615099 -0.05947464371651414 -0.04683155347106087 -0.03654315742367366 0.01986174290620274 0.040687642498430585 0.024952429503655782 0.05674055939728028 0.03762834826630476 0.01608782196702184 -0.032755728947799975 -0.06418060781005583 -0.05056415011361955 -0.02225125196000843 -0.03130728181105061 -0.0727409287778222 -0.05967988628167833 -0.05071446091400861 -0.025985156560478083 -0.020921526129466152 0.014084110162737449 0.005474679414608968 0.022574735903458685 0.014921552056113575 0.0809502490908323 0.055335640108192925 -0.05389999853753931 -0.04120180716403165 -0.02841819501645482 -0.0497165018704 -0.04408127856815697 -0.022112395597590484 -0.07264956194538405 -0.04397478667030982 -0.03757318532139034 0.022963172367219526 0.005406550774559945 0.010168410535489855 0.01826667570240215 0.04207142603887619 0.06713099645135112 0.035126194192625505 0.002653924291835635 -0.0071339985026982805 -0.025914297257489723 -0.03744444589945513 -0.006016295285633974 -0.030987942934662328 -0.03573402184467127 -0.0008003216403719765 -0.02364995670712606 -0.02848139184547375 -0.014943029569209475 -0.009801232310404456 0.010640711699653076 0.024303703423719333 0.046745007560490666 0.05331114131946681 0.01856578041964657 -0.0032973411521831594 -0.0013766038879391026 0.000668831830762653 0.02759129189718327 0.02703616933766318 -0.006519115662242296 0.016110119289603392 -0.003482955272555568 0.0563088624818741 0.06730478663272796 0.010658449489370555 0.02098799187824726 -0.0036586413815233674 -0.002786811053369373 -0.056038806224586346 0.03629473728821682 0.00286132198371853 0.026523607092593503 0.031873269666789245 0.008429152472254266 -0.04191254149112233 0.0005794805882781505 0.005112281865695458 0.01932890553751389 -0.0015763887727501312 -0.007649626686351961 0.0016999861113973422 -0.03367513396163443 -0.049813361686692426 -0.039971403028924976 -0.0048326343257697356 0.017510544310692547 
0.14245268123521124 0.16499688511029517 0.13469898785970905 0.17964048258766738 0.18944747353399302 0.10818181150283586 0.029380539790198935 0.03728016643715588 0.006698687165534508 0.003984176577110328 -0.02946039042911414 -0.02884314229078419 -0.06373681255345698 0.006253647564180453 0.016284327285843156 -0.10110373400850672 0.0935764228094868 0.1040903415111388 0.05325581136428018 0.13002549640568462 0.09972935317648814 0.0991963567078372 0.15762252318919195 0.0003325343622459716 0.0025839468200349754 -0.017811647201662936 0.017570970673599137 0.007569745513370557 0.071915174242472 0.0011330056820523285 0.011036045372966992 -0.017913039877416038 0.15001207169623182 0.08943208945056884 0.03690840683810117 0.1289033408213429 0.025141520919063028 0.09853529936277292 0.1150274829890193 0.024290076376465835 0.12004242782812785 0.08247447580356106 0.031761985571097204 0.09204767875456978 0.06784801843268806 0.0518084163099071 0.03327539258098864 -9.280789961043086e-05 0.05714724723948619 -0.10287661086379732 -0.08891217679610477 -0.07183931992794455 0.003697948444323337 -0.053532814565493934 0.0143569054535932 0.05753070194000027 0.005221908297580181 -0.02057426188507901 0.029765487726711323 0.16797316849688254 0.05342491278455869 0.060044005151873386 -0.023599765691476843 -0.050011302365446396 -0.16474938710266038 -0.2573107380416438 -0.1279253953279113 -0.09256776464601364 -0.04673369002976531 -0.017190721514430213 -0.03867265061952903 -0.05560174598849556 -0.07778508141958301 -0.039908027278725576 0.05040747892849461 0.06980472191640122 0.05171377822240131 0.025827279632861754 -0.0880743467270937 -0.018924855371524364 -0.21048430857191883 -0.18651334458319999 -0.10085968778298149 -0.08663050458826684 -0.0754266514195931 -0.09732819557766706 -0.13007173185949972 -0.07363469424570221 -0.03455896613150543 0.07563578904826967 0.07846606221281112 -0.03018212725752903 0.011692705149899667 -0.004646689447401286 0.004681534877126031 0.0005878081786371063 -0.17456053547400274 -0.21372118656211173 -0.1329595235317114 -0.1354455243097185 -0.08042666395371856 -0.04234873856999382 0.032846876160154824 0.05291287392292281 0.03958660703087934 0.002116487108729846 0.09075074576161964 -0.00979540140838224 0.06166687766000244 0.01037594381138034 -0.03967073044029187 -0.04846374249952496 -0.16146163112954529 -0.1156844821124293 -0.03192350216408773 0.034859490531090685 0.0027946382625700476 -0.030494786862825175 0.011413365803493754 0.07737646772391026 0.06214258736009683 0.025981178436201725 0.14531339295124734 0.1570287418757667 0.038899463821049265 0.036730015263674226 0.07852432048502074 0.058952158540861326 0.031026421993867976 -0.018175432026806913 0.03133734838054153 0.022240908251793836 -0.01996438217345863 0.08629490773318803 0.10071138959094819 0.16692442810658437 0.11463805542900278 0.10299935354029621 0.09288208470974857 0.0989340764225949 0.0009710773534036878 0.017829663795171893 0.025837869462987374 0.05526439498479436 -0.05568004410590878 0.06818878162495086 0.09792388396451471 0.11491412056510301 0.12847696812717863 0.09464026464140388 0.18945389300986346 0.1550006980212855 0.19131061746490438 0.09469984876192086 0.055472618031707915 -0.03397629901732199 -0.04601883793128387 -0.055058092985334456 -0.13617300149429973 -0.045847238699801535 0.08133598296050269 0.031071022005034834 0.0884407509458776 0.10481185718334954 0.15256777556578288 0.10324712555513757 0.1000771494521064 0.04306307177858469 0.07289716144120832 0.10090879022012811 -0.029740126506948208 -0.06204528728321236 -0.10310287694436711 -0.09629163298867056 -0.1507881105187276 -0.10644504668902477 0.04411592513565586 0.15736985438388962 0.1793085211137588 0.17199051402104032 0.12348507136410494 0.08737926906887786 0.07545097930623731 0.00932476127782461 0.011392338461384285 0.012354953614808028 -0.09471519756198021 -0.1303183763685736 -0.09413995962283317 -0.11545642397379317 -0.1715712580364523 -0.0831891516456316 -0.004966420917186878 0.054022335320991974 0.0396744567091641 0.029862708449628 0.07361929369656191 0.03553813515874611 0.17165076491185363 0.08548301780276636 -0.04074731075784114 -0.09569222308714039 -0.090807468460591 -0.08216349055907987 0.01760638099560135 -0.016120052966146867 -0.1329765370507801 -0.10550718834403451 -0.007043424608051684 0.002753488246524235 0.02007540161643002 0.054789756152480114 0.06287974975893815 0.09781344698805153 0.1785153921629451 0.052523224374334154 -0.05267414448940513 -0.030351274789309622 0.09741956564571377 0.037708634983968675 0.003684023482430846 -0.07775082893516916 -0.08809187285284054 -0.06704042370759619 -0.059655023285175655 -0.009865437315397992 0.0425968564520731 0.012749938249291578 -0.009360989348841995 0.05246767191450641 0.06666388871704595 0.01992753494309052 -0.03591036930083848 -0.050249392108710864 -0.0782165107522739 -0.0008388348107113402 -0.010045781914468125 0.033949512876323897 0.0003093092650130387 0.057734273387784876 -0.010787089820273769 0.016483215399194884 -0.020736678314986986 -0.06474960729861887 0.0015746297069432595 0.08186190246525424 0.022876118459488587 -0.004671451114347127 0.00983338818170045 0.007226638382840625 -0.03307798144413933 -0.0072862680952275475 0.00018908257458669387 0.06543217502116805 0.061224958679999004 0.056650769761771566 0.09783520188185756 
-0.043496329627715054 -0.07455002126648004 -0.12846778274158843 -0.05867060283401362 -0.147034974196626 -0.11625693287204115 0.0022374014982772003 -0.03301463277700513 -0.12480538182259654 -0.11327573208402122 -0.06554435424579982 -0.0694360009321481 -0.015484031672816768 -0.08807269250889622 -0.06915341405326986 -0.03725325868731306 -0.07248833885438365 -0.09350883055079276 -0.043534036122335036 -0.08949854023536621 -0.007293025934319088 -0.052810558432795855 -0.05912644516673266 -0.04367987220187346 -0.0951153509726769 -0.10262926709711391 -0.04405095839971478 -0.018122873404242987 -0.07854066956763671 -0.012046841025442255 -0.030544809254489023 0.00616702566280757 -0.08689853657142943 -0.015608829518181383 -0.06527938541582513 -0.03588553958046541 0.01135787995623466 -0.002079880717644941 -0.0028099342105529852 -0.042725503291714324 -0.02703039806671703 -0.12009476977495089 0.03704097457439125 -0.07172018270651839 -0.024445975374488726 -0.06843737986890355 -0.05886774949298678 -0.14039644083767291 -0.03458903117353704 0.03479738432930273 -0.0015399140575508973 -0.00821462271677692 -0.018620961102513236 0.010011764687291745 -0.006403946112856943 -0.04826829648866602 -0.05851085670650196 0.03615606999046927 0.008069297930204281 -0.03506093729372046 -0.018591271648805186 0.013461900958912122 -0.03860445110188702 -0.029071860420479132 0.07767201767575627 0.12599394305565378 0.02935758750393736 0.010822771574855318 0.013820434479323868 0.04481154942646574 0.02884689708707982 0.008995094001742034 -0.0013762947288377255 0.0180395887027604 -0.013993673411707144 -0.09659149033177623 0.003276826704152523 -0.012921022256850608 -0.00019402786756418764 -0.020677268483700623 0.12364061704049056 0.12496071929444715 0.02914419271261702 0.07973981743369125 -0.02957806519659144 0.006583545730463179 0.002745246549240829 0.019350468191276 0.010069836835532074 -0.01795430440149025 -0.09684792641071872 -0.07215109611361697 -0.10365466073706602 -0.05082856383391175 0.006204897289478915 0.06509496190684284 0.15921797156327036 0.1440700429824156 0.09344382113715617 0.08350783663267462 0.03849175750831036 -0.013913616584726668 0.021557159713072246 -0.008598290771753149 -0.03224417405941825 0.011585610443753627 -0.03570944135740178 -0.04730414892910976 -0.03689928613429242 -0.0020349641635948033 0.1305800363598355 0.12753645011933262 0.20371053058179794 0.19665903959723666 0.15880438401232125 0.032171462498312556 -0.03065287612487586 -0.004506672075044628 -0.07281559139329682 -0.07451491761709804 -0.04917892413255251 0.006513355218117898 -0.03816526553649227 -0.01173692565509839 0.04633084482453716 0.04585751837465809 0.004438929485697408 0.015009016799727659 0.18288522957745057 0.20850657188781768 0.07929700878305929 0.0770453658256845 0.05191149758234098 -0.026640087190363315 0.006815050125578455 -0.05578602190916313 -0.025547566742419276 0.04060687824721692 0.05887985775939558 0.11715485009497682 0.04724545751973677 0.04434963504594753 0.0599600358163961 -0.04654873544177233 0.24123319311873165 0.16853059983123284 0.14984107654247522 0.022971349123793578 -0.027265432943534357 -0.035318811309942855 -0.02930750845888134 -0.03423179037286619 -0.028711054130903014 0.07705794630864918 0.1346976529727468 0.16011182335082474 0.1773918002569416 0.1429654491633032 0.12095064242086877 0.04772751300654147 0.1695243789470173 0.2598228187810556 0.16686724037851006 0.15343250370608422 -0.008590133293501253 -0.010481922501325444 0.033010262672029334 0.04319110071593155 0.10000416836056641 0.12413387599472724 0.09401537367580308 0.1298619887959721 0.13318333388473108 0.0913133863374366 0.12892976676757917 0.12039847174534973 0.09478196601526616 0.09978153767592503 0.14190940975318758 0.07044265720908013 0.042147492565344856 0.07193249924955862 -0.004794775828433493 0.11892596795482867 0.11105892871038296 0.07214962315449053 0.11441660666117494 0.17514808787877773 0.12202022385736151 0.11680092638186669 0.08407784783967999 0.0019281275683076208 0.12680177725355274 0.0935840101416459 0.15871506304403363 0.14020162543055154 0.037571616418409004 0.01796383023298307 -0.032839197670724476 0.04542649579004617 0.14939936549187968 0.07435411224378562 0.13555018040390684 0.11610479389826275 0.01123394177560411 0.04219616669863018 0.0034788952606853883 0.06582376193842959 -0.004169542963817712 0.0325438801804787 0.0753220673774178 0.049190715789840654 0.029421424490187233 -0.09109895649297056 -0.07826802832546731 -0.015514475848296558 0.031618553351403005 -0.05288665063933702 -0.04721282623578439 0.03245325273328128 0.010363021096735762 0.09581482836922091 0.018883797630853932 0.010931302745684945 -0.014034978653156522 -0.09985260054565602 -0.04709130218519373 -0.03970804321195947 -0.05298725474886952 0.023880645425645917 -0.07305256204721701 -0.009443012064749548 -0.0020264128212320225 -0.03734188283629668 0.023088309563338495 0.005980259084653734 0.03842673201971034 0.06421585529231545 0.016494578698828772 -0.009039820731129878 -0.084723682994123 -0.05785239437895554 -0.036235100523618446 -0.07063410340207302 -0.1081499542487189 0.06381033797368174 -0.03258906890530983 -0.02087717088810906 -0.00035916926680986907 -0.029155778985814416 -0.02006370955078473 0.052812831949398696 -0.015478904174223141 1.1130545480765627e-06 -0.032483257412984884 -0.030708901926379952 0.04411936491982176 
0.08522372460573271 0.12836307752593942 0.21756706852816807 0.2428157699282363 0.18373792964440877 0.21620109316116437 0.16389891412003116 0.29493391240998074 0.1838622486328129 0.15020025773263812 0.15053275277762534 0.1257965813775786 0.1487114860630344 0.037953350864366936 0.10030293942259828 -0.14896917870267784 0.12207570571400288 0.1345488455239276 0.1365014466428348 0.12632356742967013 0.05196113144123733 0.13523634803956344 0.19872200200150245 0.19294908912420095 0.08861941087904059 0.08036314820333244 0.041997299468524756 0.03923558608548993 0.03897065258031916 -0.022209888661710718 0.007595873412438417 -0.005243625346151958 0.10660511208011347 0.07927202795289798 0.08317979782172061 0.06762012070331833 0.030122199346708838 0.02574698459341964 0.04125095778332586 0.029582899996117195 0.0011111651468021923 0.09002960463090631 0.00990548268507645 0.04241933112833468 0.01835378125401173 0.03614071938443238 0.0922622692619886 0.06783789724953544 0.08834751812758465 -0.0013573836788789762 0.023608783487476245 -0.011079007888009917 -0.046066462254707466 -0.0021359356564451923 -0.0550968212911467 0.019608001753822872 -0.004955201684184113 -0.08895549091036824 0.04218248968552448 0.07286433080839319 0.07934708824083503 0.06801187674379475 0.10403130253392634 0.10450449926624455 0.019395950575895153 -0.03687339672972801 -0.05889553638962549 -0.0011543061311193353 -0.04530125834720441 -0.04717976778841866 -0.04850900965686026 -0.037101942804251685 -0.06223150601415589 -0.04364227422285137 0.07927250357252019 0.0807537514252491 -0.0022525858683161183 0.11529371265990812 0.02146138292246749 0.005890807042825287 -0.017299446942139588 -0.09306793214948293 -0.09607623686589552 -0.019906383053733857 -0.09551438370960441 -0.19848197343321938 -0.00561162947010036 -0.013221184326450247 -0.02713141633253709 0.02063337980140124 0.056367151722901354 0.004658943841790838 -0.028902558752064645 0.03315125674457844 0.030527871017604617 0.03504135198548929 -0.05011028502373675 -0.06110518587116696 -0.09769686851983639 -0.10622827345430169 -0.028120384900614834 -0.07227590399573366 -0.04691151745285957 0.03519476218986679 -0.0077715335359158574 -0.04968172586894899 0.0009788464565059307 -0.02611374614320136 -0.06270544385268034 0.006429174924757091 0.03587076818669225 0.06563961945779653 -0.05830366293926446 -0.04309765984457508 -0.09873427954699987 -0.08663044715174778 -0.08986240697734427 -0.15304659493493145 -0.05599320985833307 0.05998858253425372 -0.12393290917239107 -0.0826815059378196 -0.10886464918363872 -0.035413151314020376 -0.08227192265715276 0.002986865928245061 0.05052423251361192 0.09302247590126611 -0.10502349800557244 -0.06996498468495681 -0.03702509913474003 0.0756864333665241 -0.03232246084428179 -0.07980486472491159 -0.1446916293912638 -0.10005624313707061 -0.01168742447206858 -0.03473446835024934 -0.02149071531046677 -0.06493034092432828 -0.07522754543180084 -0.0266919273244013 0.07584179316552121 0.06608756990347037 -0.03758771369898057 0.030086058503039546 0.05351772239636983 0.05147421082526643 -0.010194884662688064 -0.05610881823425902 0.011449279194926873 0.10532764650228305 0.11338626914710992 -0.026880927071357197 -0.11302075229791753 -0.09245992007360342 -0.11121508552614226 -0.032700998609198964 0.017499269517008323 0.02340702421931435 0.0267883218698261 0.024597997852903668 0.034776770343980475 -0.015509016031363084 0.00023367831284064236 0.04396579445854244 0.017044949687502187 -0.046899005232626495 -0.08061143956903793 -0.02235176869188314 -0.03298537614904197 0.006868845515956047 -0.046307184934024324 -0.08832608887052763 -0.0361895837106077 -0.08350285345482016 0.009732244299829619 0.04702581230173365 -0.0010548194618886552 -0.027159750882636488 -0.008014348109803508 0.025234040149600376 0.010924821268265323 -0.10754679212912038 -0.15565586446078536 -0.1456881295407106 -0.1524577928582667 -0.07502147504025956 -0.057299077640799584 -0.03530907881367527 -0.039741574462864714 0.02508914577542153 0.10550377589937038 0.08410745534786356 0.022334561232185236 -0.024526253008763772 0.043928265098478456 0.039168352681054876 0.05968136691146753 0.02064641629448174 -0.11598484848968953 -0.024770083389660653 -0.06417403789975087 -0.04776651567767404 0.003865938060358442 0.0029194886409828072 0.0185617196075154 0.026087204673964096 0.11482776555254845 0.033889642043719914 0.07947144667857448 0.07711101200103379 0.095927984862738 0.07148281773031287 0.019706833488116495 0.1466891003348717 0.05810660097494256 0.12789462819184444 0.1807897188674781 0.12064034911635342 0.05105272354144241 0.03753847286938081 -0.0698331504660248 0.02023919134687 0.0880820898444668 0.11069132465392835 0.09450767190814026 0.09497020160755688 0.05836285061454018 0.06494916519676058 0.13846184292728617 0.14725045756248198 0.12081095283227501 0.14437588387425465 0.12937691480927835 0.19166626359662176 0.07952922990661049 0.12827452183100824 -0.027340161698791624 0.05874266489429783 0.11253629147416778 0.0691982928138297 0.12434930907323875 0.008715292516492364 0.015157484481284901 0.0026371460103024953 -0.029126970665245507 0.04305633846491083 0.04308761249233917 0.07682179884635437 -0.0034770651286673516 -0.03868136629692209 0.10643883179009253 0.08202287919791394 0.03569634442727434 0.0462218455205884 0.06076024428974759 
0.0077758909515756305 -0.026234346781366692 -0.05141456577780826 -0.0820751427517442 -0.05947455721770402 0.0035406208053737585 0.06899559581238845 -0.03678082748700086 0.0760913487341974 0.1196558543275454 0.12072357829042507 0.18731894165966312 0.23487440395057427 0.21372395371208627 0.20538968827307366 0.2909229780057965 -0.019363816199340467 0.04498710512381286 0.1009195191899141 0.04641322499223686 0.03324786995845079 0.036241263985519294 0.014308193724505891 0.09661844360372417 0.1130742839184715 0.15436080952591108 0.18023256447917207 0.10039830696760561 0.05670899476390905 0.027923778187131116 -0.0782998785650345 -0.05032406339134216 0.019834485170409883 0.06874400415947475 0.12174354667376022 0.08816398281358208 0.10040855766537077 0.06822573884940249 0.00041106361013472034 0.04448700157309791 0.0524909733171033 0.053580547212336405 0.016636315202863922 -0.014838834002382423 -0.05636815916858679 -0.09184744589571184 -0.1318557781823882 -0.11222317021633797 0.015146695883341898 0.1945072672094919 0.08504361107020696 0.19821183046770005 0.13121735194679524 0.11720746316242217 0.04638709462438744 0.029105343789735092 -0.032950918569840754 -0.04183205197973981 -0.10099919294118206 -0.23505248307849713 -0.10913910596131644 -0.1252753516406747 -0.1659928820915897 -0.054616638748450914 0.19362023048040566 0.2643844905768485 0.23077708291338256 0.09866616911583936 -0.010851740821340704 0.015173532445178774 -0.005934859144463354 0.014706661194440017 -0.03854793787280719 -0.06124227852442706 -0.1278207561815594 -0.11883758208450192 -0.12486870660896145 -0.14805096117953243 -0.10092698318676517 -0.054741851977215004 0.21756826702132748 0.2513103092200903 0.027349140795311595 0.11585876155747417 0.05204133885879482 0.028830343245309142 -0.04844204876543786 -0.0209569950883132 -0.06545922712016755 -0.021007325486583 -0.10595717194005878 -0.0498680048121092 -0.153042861247452 -0.0844748687664218 -0.01751212276363942 0.02394511363036536 0.131349087215045 0.14997637998001662 0.1249286985697458 0.15859887215788243 0.04595343250660584 0.08187744187668032 -0.1007722729974514 -0.06182083400120056 -0.0766923721292456 -0.053840411423784 -0.09921172039371944 -0.12105379284998453 -0.10611523788858294 0.04782389917011269 0.0995271743023319 0.050388395408924674 0.14818689873534757 0.1387716388154159 0.08155655869493546 0.02284924814589473 0.0006899690587555356 -0.04175118989332087 -0.07012641281714185 -0.0750857207777279 -0.010958441260916241 0.04110957668459337 -0.04676915485289534 -0.07340131167593998 -0.041716501935093124 0.08673328890721792 0.09337517788809051 0.055016831572253615 0.10238432392354478 0.14876959395789394 0.05415730475307004 -0.05114498839954049 -0.026757415790709643 -0.006318716464974052 -0.006391183522588444 -0.13613823199043407 -0.07656302600826156 -0.07843857230260143 -0.08275111004215172 -0.05918941596151289 -0.11271403626580977 0.020820396618896793 0.024557180976207644 0.0820459107451397 0.12016240224885022 0.08192283320355599 0.0025890316382371514 0.023796529798964742 0.0006961716704325122 0.020328759467103115 -0.04974249875760858 -0.030159684227725393 0.011326834815630496 0.02601532282837897 0.06346367437886283 0.0253294325157603 0.0412692087920129 -0.015905404237971557 0.062387472029113135 0.05316291968333626 0.02104203264475381 0.03918054422728368 0.04782714247888184 -0.008190378322070929 -0.03345026432888614 -0.03766760603761382 0.05783050623876274 0.07162495865950884 0.09965840866484811 0.03275174718489501 0.03285080735715933 0.09082175548925907 0.09694268608513829 0.04519119263754135 0.07031105121362075 0.09457030853503484 -0.013022769828338667 -0.03620051026071006 -0.05362560467017679 -0.07695042671327762 -0.03039611412931974 0.002054375689088294 0.022125989213758045 0.049653166521190194 0.01557809346653499 -0.008726334380008454 0.03514836836550898 0.13486131903440987 0.05921811406290255 0.06547968515242394 0.04036623047196515 0.041966742709311076 0.07370520738082023 0.020484412641515144 0.03767471775340722 0.04862901846563974 0.08930938554478708 0.003183009180608506 -0.007556920564696229 0.05809174375944029 -0.004560248017325623 0.07173613111334627 0.060776256085004705 0.07511672035274877 -0.04080546118902533 -0.04745026398322808 -0.004227952603923398 0.049910428213400714 0.010292522693808346 0.05260753546889361 0.03062916120575923 0.059913417365304485 0.019804310731743248 0.0648108408527388 0.02818647058830554 0.007377199641636004 0.08021396445905148 0.024086060398277185 -0.13464043297116648 -0.12698802576532 -0.022375949690612164 -0.017162551584756616 -0.048940715791146235 -0.025268076945958593 0.019852426743462204 0.07718046777718235 0.056130717333529326 0.054608727748443206 0.060760728336838085 0.04654835661303175 0.07157451993888359 -0.005803624944000996 0.020312707766911554 -0.05922032561637372 -0.06490206996843612 -0.13293722553036508 -0.10149419023278039 -0.1672953144271369 -0.072546634565965 -0.047959771180583484 0.020346483116842996 0.042742362565442484 0.06752667549658689 0.06357829443596699 0.044112509635724016 0.15312728202970835 0.0713391236403077 0.08395416706139205 0.06915244158744041 0.06327739120435472 0.019699198626220563 -0.04669170485373057 -0.09080075861987141 -0.09053343114655707 -0.045135698925293156 -0.049428142463774666 0.061635628332543636 
-0.03190159839658417 -0.02310258723462713 -0.025015832231934945 -0.02273638646185059 -0.008554457508771176 -0.02307486378602508 0.039483168701749866 0.0891567232501353 -9.712367119668016e-05 -0.013664344922558884 -0.002590826832982137 -0.015637998296122058 -0.031723123030635854 -0.033116610808455495 -0.008525304615308881 -0.10265542374103465 -0.0013998728340422813 -0.03481863622878789 -0.025463400176321045 -0.03329443920696368 0.013053688753292304 0.03759495692888289 0.053918514607790693 0.03425347591367939 0.011548965991757126 -0.01933760190526069 0.006506925414491279 -0.02362838909396569 -0.028718031560592976 0.036810771082580546 -0.0054372244397857955 -0.022162750136983416 -0.018310950969207818 -0.029623363998487674 -0.04343005738439528 -0.0030206780959692713 0.001671508841401311 0.06209326750117263 0.06317992353191954 0.011742326600269007 -0.009881483509304009 0.024966381648507993 0.030739565276259536 0.017217989316577195 0.04232252552346453 0.0007858527810991014 0.010945335210365163 -0.05843926174268523 0.036735555185231215 -0.008236610783683353 0.010858025267990474 0.039041856155898315 0.007095840852182166 0.0415513131737131 0.02576651802313532 0.016279863754914622 -0.029692292585080625 -0.010441641578693216 0.031268015605750085 0.05044698677266908 0.04726822565314064 0.05371242022560137 0.05740710386102366 0.06504855529283943 0.022194549586400658 0.0026919839429239063 0.028012599441491176 0.03607713500769353 0.02705614757718907 0.021615716914564397 0.044745167514410655 -0.004086805570348199 -0.023901512724514105 -0.021515312284682526 0.062383911269767875 0.020061733904264942 0.0005200891132092794 0.07788941750210095 0.09664292687954731 0.03596789353199021 0.02332048390419147 0.014525594346174682 -0.045261812357803355 0.029768456457379612 -0.07984598932080345 -0.00948673495518355 -0.01869088907675866 0.016734052855653284 0.003878584258241765 -0.023720654018827787 -0.008491027607884812 -0.0534313024253282 -0.0543780950688143 0.03459817307005489 0.12570239267337063 0.12351083205468467 0.03054855406756948 0.007014269914328787 -0.005423622480355343 -0.0013030398917577627 0.001955288781354263 -0.03990078306641251 -0.014337649609675335 0.004677024634237112 -0.057918074543527376 -0.051922064193889894 -0.09476381647810804 -0.09782710075277071 -0.07282762442114202 0.009966139118311387 0.11795343315861406 0.1315132762886255 0.018095826778938402 -0.006042431278613618 -0.007639410516027966 -0.04864770268365585 -0.05562966186282249 -0.05445543153537934 -0.12198729883199581 -0.04891914715882608 -0.1544088921652249 -0.11317394281173242 -0.09289548822516679 -0.06725910804340103 -0.056764595218051425 -0.00943011648572664 0.05807862006156589 0.06164098629127077 0.04262364905468305 0.03964013476993117 -0.03618031276497783 0.02725098951053885 -0.04622938409833756 -0.060134872188511095 -0.10991169025553887 -0.10450071346108038 -0.08109470502973683 -0.0689335140179943 -0.05404558257056454 -0.02968428637776316 -0.04577299042542143 -0.0308170054191349 0.01600834050534112 0.008393671568575017 0.08608208582052732 0.07304202802310406 0.08548170437636128 0.03051537400960952 -0.002503551225607561 -0.017516778260861298 -0.03682567311239754 -0.03145784664889955 -0.012335541441017027 -0.05651896666359232 -0.04994584410356571 -0.01645483302093728 0.006007694092815043 0.005522830909428201 -0.018576986920208413 -0.019652673249999753 0.10116859963984282 0.12316471140923116 0.045526988171103934 0.05237386998599651 0.02704563569311732 0.06796029480875634 0.052674788541210785 0.003043833139313174 -0.013109303136843393 0.01881012629702051 -0.013965066815905418 0.02128659046921965 0.021845249242550623 -0.02400517423749013 -0.03321352565885657 -0.02407635165468381 0.05598101180865408 0.06764991385174368 0.06645610447164384 0.016055512214070387 0.03958211488191553 0.12920468023315806 0.04253367750919232 0.02224689892784531 0.00020770171420947078 -0.004481421610882346 0.03371351528155878 0.034070052645819866 0.0010039671338435397 0.012515480078863954 -0.036273015400902116 -0.058690449380979934 0.09389806050421773 0.07729761245298179 0.06969400645067644 0.08325261386982678 0.051688405650016 0.08462899277576692 0.11584192499641054 0.025424925559929857 0.06602507516786323 0.05997168301010482 0.030145792655134333 0.023958814858268934 0.02021943336448496 0.014890565946522001 -0.003803509868518416 -0.002597430392072204 0.041880467037223076 0.03531809138343594 0.09480254578505692 0.10890001763581078 0.0773033471672076 0.056744143157488304 0.0077317369609880724 0.08533232578343558 0.09904830017629788 0.08058599974396471 0.12084149880693293 0.09790534484233546 0.04209399432471686 0.05467343113256703 -0.03883090035144649 0.01998908507845805 0.0453062946391017 0.009217627134217591 0.03838571294509459 0.0537106092332547 0.016087098828487374 0.007362029498467761 0.0131536108959853 -0.0033868272981110283 0.042280898559579325 0.05101064901703874 0.09693625473984775 0.10874114086675964 0.09669594535103147 0.10803671757336827 0.05801394035849518 0.08581932122394224 0.0039211784752254016 -0.025293943859618726 -0.008960346685520726 -0.02440936121323688 0.007025990408107997 0.03461002864106305 -0.05073439889328633 -0.04097014024832189 -0.041620685199847365 0.03635716605861035 -0.0024878395113729283 0.013361502295215502 0.08641679479029711 0.08831647174198681 0.09794172177332412 0.05645115676367111 0.052368069370098747 
-0.04826997332937757 -0.049532524226386834 -0.02013790839008785 -0.04878718977056913 -0.026313546571249305 -0.03858316149423802 -0.03471751001305886 -0.02776496483400392 -0.021830219380444448 -0.011990891663059708 -0.04042422361276293 -0.03109421575045382 -0.04167427679367383 0.017079725921008853 0.01712779954606263 0.018349300837668146 -0.031045037759061717 -0.05264194265748699 -0.04066939247593281 -0.018187444711470088 -0.02137812480957035 -0.010230089800071515 -0.007364376772757974 -0.03638471690974255 -0.006098385052019334 -0.0063442707618228435 -0.025825520605910472 -0.0017882529986069848 -0.008167571983218743 0.015367450257024429 0.00042416017554377725 -0.02142772130093524 -0.04023421154008647 -0.028058887108583362 -0.03264951066261034 -0.023122014248167982 0.004021641179422081 0.010545211598004681 -0.023879753992554622 0.006284839429521091 -0.002801220286899407 0.007979438227156608 0.012608791718775778 -0.013838726313642502 -0.03174490478134155 -0.011584092181618605 -0.013268009221581046 -0.01377683166348044 -0.021349219142199966 -0.01346788240224382 -0.016959888774405955 -0.025557470579416857 -0.01689846870263113 -0.007167374400350119 0.005212237729208537 0.01445157558016356 0.01906330724495282 0.036712826743176635 0.026044693511261423 0.023727271803402537 -0.0036900500268185104 -0.0019633790595081553 -0.027192069310509694 -0.01565307484507463 0.006323953906340535 -0.00560471887804345 -0.011610311137697416 0.003795426372236663 -0.017410696705887154 0.007897185247118785 0.02407355013721034 0.034392541266224735 0.04477968026663494 0.03368219167671608 0.018102822588657724 -0.007489944634049316 -0.005340245742836012 -0.019128446941927658 4.7315841051760344e-05 -0.007388611757413155 0.015843356994338618 0.004778293363087516 -0.0054949965738334645 0.0007179605317808632 0.026774449571490458 0.055822080609404155 0.03974310798552346 -0.0002843114235921214 0.03434585880372503 -0.015472983739881267 0.004370710127617148 0.010717157869220697 0.018647869569180194 0.0028075540603664595 0.0019382014772475224 -0.009020109509655533 0.01264204445170495 0.004710648624232049 0.01924563944954041 0.053775825354366376 0.03469534630530653 0.026664958777120218 0.01876023727948515 0.01611103103098439 0.02482213974263478 0.008120340890006702 -0.026508176387327855 0.010664093435518487 0.026420672429320745 0.014917129590754438 0.034041171606444806 -0.012754598830886999 0.0014558839074226711 0.00622702427396383 0.021508629529227916 0.0015835309750057258 0.007042840230486233 0.026860674404542605 0.012560917404397272 0.0168496713059886 0.0001658888446492857 -0.02135045843869734 -0.002225471296900094 -0.010350329451447149 0.020159818287956398 -0.003243934834496933 -0.0202964259217083 -0.022806332195379166 0.012838908666432438 0.008700301008873588 0.0148327140077525 -0.0074232343885338 0.01817390029975253 0.02584055550965725 0.002776992137441023 0.0005035079070029123 -0.02631268723254936 0.004382563350056664 0.006665827584741022 0.0029152911908859134 0.010402442226272847 0.024908897607971103 -0.01892791365404017 -0.02191463891225176 0.010217696974657886 -0.014844407114778184 -0.029781516179554487 -0.025137382411262333 0.017120850632628127 0.015584501243741491 0.012967855874129639 -0.023671356914647664 -0.01903590213838847 0.0038820141434801362 0.008342868152133148 -0.0021272926169341386 -0.005288525514422685 0.00949524534381931 -0.002243286742044139 -0.004223401236190554 -0.030210415121293327 -0.027980837476717944 -0.02194884050711387 -0.028111785759363996 0.0035102298405501713 0.021925738879041173 0.009684552521704862 0.023083334510155776 -0.002808851161082649 0.013216924868393737 -0.01908764156855082 0.006115325690316697 0.01191661472256661 -0.0047914156968357005 -0.010839201167801299 -0.012799718182276138 -0.019110348230165417 -0.021423509719147752 -0.024673678881951815 -0.005968352813410206 -0.007656715477869961 0.030741490521249214 0.03485725328386175 0.03601243931308626 0.05345647305324645 0.04901244153767595 0.030664391953251074 0.009172645427150405 0.02264164393889039 0.023364336711145142 0.015871024916866587 -0.00721042686903619 -0.015747177675215995 -0.014317242921911947 -0.003233067527763839 0.0065306293694057105 -0.01468184451726722 0.025655823165713517 0.04618201851592353 0.012688428838652961 0.05725852564326141 0.03625841173674411 0.023843489664504232 0.013355200402193169 0.026215024092289003 0.03264764602116265 0.0046254915251701546 -0.0037763900899045575 -0.005200877638321408 -0.0010881290944444709 0.013645804421477893 0.0187258520139346 0.011503878061592296 0.03302774712509644 0.019488802285394482 0.02001271320293849 0.03826267687126351 0.025365757303381083 0.032327038468341625 0.02439526337257734 0.011957554079451687 0.022868717475453736 0.026598608475794358 0.004355629883228025 0.010061374043787543 0.017650337127691536 0.01996506812785446 -0.00039041916675234547 0.035161727108788364 -0.018076494130602205 0.007415806199783619 -0.007326314387788044 -0.012011812580902366 0.025381089834167807 0.038185956970027024 0.009334642495990107 0.029200987220570067 0.014422605848079665 0.01361006722834681 0.01473206392823466 0.004426180543925942 -0.0033485744298978985 0.009926220469495015 -0.022370767430530333 -0.004154961027706937 -0.027451756887360283 0.021531983401988333 0.014944888520924113 -0.016608018029709747 0.017503680671507302 0.0047641379652848285 0.02993086044730712 -0.004498666475687422 0.02118793973328939 0.02634745237381643 0.019074370345817607 0.0451805742051659 
-0.07423073289925022 -0.046394485511260214 -0.07787596162780278 -0.0823902027279026 -0.08134256993617485 -0.08059102772537334 -0.024284695471803508 -0.015479069927176117 0.0272592513379831 0.034899373455157846 0.04559771488284495 0.007905307664378594 -0.0195834763156966 -0.026082682362162043 -0.033495397358756396 -0.06431497247201916 -0.01276906389310185 -0.023451624344897098 0.010079350319917815 -0.0519377791876045 -0.04230186639238394 -0.07333865124920912 -0.10953860742291449 -0.08398690333739552 -0.07391563453042621 -0.02048584077835075 0.06090467776807842 0.0313542772083999 -0.03320704730521122 -0.02484114899464903 -0.0020909707536778802 0.06093746895306481 0.026344923554370073 -0.004991518120012885 -0.08245962183112109 -0.01028485246266346 -0.1032144298590898 -0.051237004640768816 -0.11241440935235669 -0.11878223643235941 -0.1001084817574849 -0.1859781086264146 -0.0734796396330804 -0.021212237397341217 0.004407628829698027 -0.05303975419363653 0.03872328700765343 0.06052395226312169 0.07355060640948001 0.03344038455280165 -0.02830578339979221 -0.06371015672627739 0.06890790069967981 0.03742369346176341 -0.0037410250920069973 -0.05439363781843539 -0.13474438772278735 -0.10075815086281763 -0.053778560381099 -0.032873098607945093 -0.018999048901962932 0.04115586841741774 0.03762420271038281 0.014101402325214974 0.014073906811291509 0.06707946804536098 0.043720223540629176 0.0343037124657183 0.09413258359197423 0.07512758790202155 0.04349015729895586 -0.0943107079589033 -0.08833302457644737 -0.14338479134679205 -0.12019848216810838 -0.05680804761256046 0.011027400840091038 0.0031803161727751357 0.05470712136927082 0.019496609909010008 -0.014636703546533547 0.0015877035080195641 0.06234305791826772 0.08741742351759915 0.032914788214823736 -0.022326245953925506 0.062192702731812155 0.07360461691289082 0.04544820003571354 0.055311138091185624 0.032568582888849576 -0.0023533983226725805 0.013845910817601894 -0.05897388762043555 -0.013529880636138285 -0.01801115024372905 -0.013259467672089213 -0.06904194262045424 -0.04803519583375622 -0.05983247096040663 0.03085149598539692 -0.004897672876029472 0.058399340717065505 0.041758630806337654 0.008738355570420176 0.033494905189802596 0.09912499754771852 -0.022924568959099858 -0.038250089357108996 -0.06280962738591381 -0.0665401456641744 -0.026997718727535102 0.006637753114410548 0.04371392798866198 -0.014005252282991864 0.04244518750734206 0.0722411230854158 0.048119326573217186 0.010208774855856839 -0.033911987527319054 0.02996547184122132 0.032138723420002034 0.1276627712675574 -0.013556407357222414 -0.11640688653792945 -0.1397433699567575 -0.08508574263437413 -0.0922478166724915 0.030063220396132875 0.1097396505827414 0.06175280678410213 0.04744950569370435 -0.010988854073983152 -0.015385564093399534 0.04964630975012575 0.04687766080830759 0.12396144715758542 0.03906380935930736 0.07291055614141312 0.04423255353338857 -0.03288901936599047 -0.05008242953347496 0.011900560102145935 -0.012410196477253907 0.16319895835422496 0.217027000713041 0.19902466545723302 0.051836734515352846 -0.047814192087636834 0.05053610604073339 0.05430519817762644 -0.01531873821797373 0.07234539015394897 0.07758715839507475 0.08431920673184272 0.05229328161019161 0.006869345739472197 -0.07238425684262781 0.05259796716716289 0.02583383771621928 0.18592137086988345 0.3192458010836699 0.21017676480876699 0.21778478267234028 0.0886774025771073 -0.07903930598371803 -0.034670485329345344 -0.034087202903383476 0.03791230779813723 0.026967061414791778 0.03220483461667742 -0.00563627340142788 0.0005053184638091355 0.0027833710094465093 0.0884614023775138 0.012203550105738814 0.16055779020381314 0.35366135092414286 0.27009338970294605 0.21117894620563188 0.051134738772818704 -0.09614308123645976 -0.0720080319062144 -0.04851752183550985 -0.03525132902119189 -0.05010724996314165 -0.04254986424674181 0.03453057149545373 0.016671140445630128 0.04250146896095616 0.04763898182744817 -0.033728320802387725 0.2769552749411333 0.23576551432047765 0.17794835531566042 0.12995300235106097 0.14923138063390518 -0.06852419511725015 -0.07516714800944546 -0.020159534466436948 -0.09051274608891009 -0.016943596929336963 0.050167789150346594 0.010572850887436435 0.04055987650456096 0.08629915332318328 0.04379244529673761 0.04146903961335204 0.13092643134282708 0.04302544389600031 0.06839912165937836 -0.009995769451923743 0.02341090950894383 -0.029383252900733153 0.041636594208471774 -0.023464328577237927 -0.059804064013630386 0.003596174004567793 -0.024895744700401002 -0.05083029324252448 0.008018269111077317 0.018610413126509594 -0.025558015089758725 -0.013285900873211817 -0.022789525037859772 -0.016097661010654553 -0.009566490072698136 -0.05405833015670408 0.0892589534993432 0.13234021756464476 0.11072622278592135 0.1551487060229915 0.16081378252619452 0.11326033937783074 -0.02365092790296087 -0.06214209301500414 -0.06528566723537871 0.004517876156965544 -0.07062251473316575 -0.06179030517053857 -0.13619148310251866 -0.02406813431735304 0.01128313255734732 0.05435322457220419 0.1326445276513479 0.16138779507374626 0.062201435246265355 0.057866844486441395 0.15635684531722704 0.026907728340847117 0.03134341353176767 0.03488674398157052 -0.016838600908687683 -0.08649118205881587 -0.10012922470985536 -0.08517212336774714 -0.19947491845865858 
0.04131487225223569 0.029265094461824143 0.04990581147751959 0.04146443045428117 0.03426339961166372 0.0011459524435065089 0.009958575178211464 0.02308376699361989 0.005140566296836656 0.023061937361059832 0.012283828959289266 0.030188049679211335 0.022289307906349188 0.004861684565829294 -0.008437633567403447 -0.04517096710627334 0.02625305122245679 0.04012608663704108 0.027888755339335342 0.04757004491989761 0.03336886791670764 0.025341324620019368 0.02814661798982036 0.016917390200410547 0.004686510243068668 0.01552634245891897 0.027577621544412824 0.029096790765533335 0.05793261003701122 0.0015080803831443964 -0.006257644655257937 0.013676926900094977 0.011434587875919331 0.03608644635676275 0.025331805583027067 0.02317819955459989 0.038429085203554855 0.033414309203092345 0.01644686989107092 0.014547136046017553 0.03829977318606773 0.056028544208501146 0.014128053554620408 0.04309582877187654 0.05370801841388662 0.038367212549536074 0.009159965579773976 -0.025959093064904154 0.01822605576416358 -0.004437708708107324 -0.014019388862917951 0.03992709161290181 -0.004351965834122789 0.01300812059452841 -0.011178412105108344 0.03502726456742768 0.002174268190117527 -0.003419569538508103 0.018363809964019703 0.035911138960558454 0.04407844467987637 0.0359899372067645 0.04255530670394186 0.014489753307161882 0.007860438129487795 -0.01741770832486493 -0.014125055616847761 0.00897487665327775 -0.013978507541885314 -7.342875276104004e-05 -0.013264980033709024 -0.008340774802812806 -0.009502756669019606 0.009147915763426025 0.03878098237946684 0.021128050792731366 0.01570605403618959 0.03278624583423398 0.05701275551237747 0.01031421856191301 0.024141678224323 -0.0188769073566338 -0.019915239572260345 0.004702822295647493 -0.01151496358388239 -0.03071697772606856 -0.04291362714546301 -0.008138695512150722 -0.03152741561284963 -0.01058264642525476 0.004816685131346501 -0.022335903090945294 -0.03944193158311608 0.019902117345303855 0.08256644509459515 0.05320508499803557 0.039232952877443286 0.012096150684965055 0.015495484974649445 -0.0005718010934743742 -0.015780430197483965 -0.04753384863598887 -0.059687159739859094 -0.04013829108916058 -0.032665119895172456 0.003939764026590626 -0.02406025768717569 -0.006700032171834363 -0.010447257445761143 0.0033723399176141208 0.035802266505262505 0.049670963305992584 0.019428517981810348 0.010949203027781011 0.01029151068283314 0.01146966191582327 -0.02454286005486538 -0.017522266240362728 -0.016255394318272266 0.0134445621579414 -0.0300944044689603 -0.0019316071265315018 -0.011136926374386038 0.030116865617757525 0.029319089879851726 0.018928825461801625 0.039773655959049845 0.0659369079321221 0.009250073056274241 0.03845413181248333 0.022760668631791787 -0.005845513945939451 -0.02251814248141256 -0.01126221835538942 -0.016260024957931822 0.026442286243240194 0.030176063178257218 -0.011497866709321097 0.0017993090592746527 0.008067498099816868 0.009839599171135673 0.031918745400754525 0.017963272939848954 0.03420445270179647 0.00838507988810814 0.02138748085866248 0.020869268014420003 0.00545669893375347 0.017184684983877947 0.01093688270478293 0.011584558542316442 0.04347666170083335 0.0010752029934561274 0.007072221137253964 0.001544015344788873 0.0037996053078269156 0.017811488705586843 0.027673524192958467 0.02092191121373344 0.008114729179486581 0.037522568380102594 0.0009623716441527324 0.006315419728191151 0.005432335465369101 -0.02409000997161733 -0.007409327182879126 0.010803533378802506 0.007392882441855065 0.017359419773183542 0.010742707450940116 0.01112259199455174 -0.0016846908211821045 0.004447712581916831 -0.0051741568338180225 0.011556886765910815 0.020448963341833944 0.00115091230948265 -0.010663431699384267 -0.007469298532349022 -0.017383062860506907 0.018472002968558977 0.008855877270882228 -0.002297868544462277 0.01338021186298539 -0.003676751958011094 0.014933517103611717 -0.01016270832233793 0.014921676428014731 -0.021669086759777433 -0.004101250946295634 0.0016795286301898246 -0.03300350973026253 0.016604962103792417 -0.00737076409085973 -0.016758993675404128 -0.005777818183444098 0.0071477584462849445 0.03289741331174585 0.00499260778514938 0.010719508041512418 0.009128665389866989 0.025034487579299762 0.003047576680445663 -0.018102181604167378 -0.027882728472592273 -0.00988972536032183 -0.03649501477576814 -0.01947131722966005 -0.013099832717791603 -0.02432955529770087 -0.012137527402609304 0.02449487493491565 -0.015107496718905032 -0.019314840588925734 -0.006508485418497514 0.013507014937127398 0.01984030664906791 -0.00997145461419062 -0.012961920774326658 -0.008608512285137048 -0.046283105772465666 -0.02157255412791608 -0.029574211124302186 -0.0018436410788318593 -0.03237889749523815 -0.03404264628605214 -0.029320757732631778 -0.005664533723055769 -0.01829285554529742 0.004653253473034399 -0.002186974938791324 -0.0018996242868290288 -0.00016782606421155815 -0.02044202011120131 -0.028744668344557984 -0.01803784225682777 -0.042230233260193054 -0.025749789562792787 -0.01859422764445977 -0.028365950246526397 -0.019916083507959776 -0.04474079965241379 -0.027883915076481844 -0.022867404039762666 -0.02326119470151175 -0.006172999391404415 -0.028215908444125602 -0.004431912679385183 -0.033573795535298996 0.0010391925490808463 -0.022244277944369513 -0.03952330847347875 -0.009948776836878205 -0.008456082096320539 0.004510687604489379 0.013284963144150482 0.027486706450554274 
-0.009169837062011488 -0.016318523514071374 -0.033674120814766284 -0.012330472435010769 -0.03396212478386016 -0.0364139060734066 0.00932075459564538 -0.0103084364879798 -0.015978110110549726 -0.032062042334930395 -0.009727318173902676 -0.017217948972564363 -0.012358763601562408 -0.015109250455704486 -0.039840077861002306 -0.02836142101270177 -0.017013694582469246 -0.027769620567651705 -0.0228828003079265 -0.0510248807988079 -0.0024466593543585225 -0.029156148597807838 -0.009021553404200685 -0.01230111327313183 -0.012965167469966055 -0.027805183392636202 -0.020018037910635774 0.0013415859734760163 -0.036309975662893436 -0.011228331495437989 -0.01608253854446245 0.006942012973013699 -0.016713429801933865 -0.005184867467444959 -0.027477938195670022 -0.025479914628947546 -0.00653194066265087 0.004674284015539983 -0.010032149710910885 -0.009790700589820782 -0.0206713419651807 -0.03856081468044949 0.01069613427394483 -0.023288540971575317 0.010248301812519536 0.0019380549412332997 0.00145896886709711 -0.021156909064136045 -0.010041425831999113 0.0019369900444266457 -0.02073268822301408 -0.00941964584274537 0.005826615102952042 0.011653794651284431 -0.008990526335232509 -0.010827410787576923 -0.03762536377507187 0.011999617090828633 -0.008559139596649605 -0.001851123264013523 0.002960151233467494 0.015513968540207637 -0.023122207392133512 0.017064125557150867 0.0026357929449986528 0.00990894817617425 0.0029846573351219596 -0.021857706331062193 0.012095491607823621 0.002612852018519578 0.0059115497321728765 -0.004505347449074951 0.008246304365506852 0.006828036494621933 0.011280184234813737 -0.02484608381557186 0.0009113120708500146 0.011657848535585689 0.005434308632808262 0.008255789210126289 0.015807722375511344 0.017179032127616664 0.002500549527168066 0.02374295255535472 -0.004090023860129241 0.006846654912659691 0.01430160481276705 0.024509405052796883 0.026233532221663688 -0.014077923549159188 -0.007762044629743258 -0.023125446208042057 -0.030662559464919265 -0.016372430767876315 0.0015848372374440889 0.012399496647967453 0.031080336824903406 0.02028024793861474 0.009603040954647162 0.013089405809803398 0.027250526989982676 0.011763248890696156 0.02430005967321331 0.016416003081827186 0.01616488923513456 0.014555899216652035 0.0007910491628158241 -0.011215760941549576 -0.012559756555610658 -0.020567620239519514 0.0499587848688753 0.0014149684548107344 0.03631559810726987 0.0442485785065199 0.04328077605818352 0.011278042255753405 0.015234914731388275 0.009623799840429867 -0.0061161894181008735 0.005725162302336037 -0.0029289607823941833 -0.004853708578506264 -0.0036529338710701567 0.021016785353485525 0.001902107685170387 -0.013209655250499787 -0.0008757039856316364 -0.0019130639496715079 0.047059385922182624 0.05067487145439939 0.034662611273184464 0.00872522054649484 0.029432502652743667 -0.010900968128918276 -0.012033058688027657 -0.01636087229052759 -0.015031386216539657 0.0063413543669893335 0.01980185682109228 0.021891731072423863 0.01536390504921426 0.02509699211584839 -0.0018098673950615353 -0.008196060456811441 0.05387745473570512 0.05413801143345463 0.048075329447159094 0.01335116030127082 -0.025750349122588605 -0.004768902366850152 -0.007983924484291808 0.01389799125074584 0.0024039621326960477 0.017604846075977173 0.040039689933338 0.03681050102279067 0.038220422502474136 0.01978474368324867 0.037195316555584154 0.012357710109122174 0.051695619599303085 0.07224593310632015 0.04768473737431071 0.03564280945062704 -0.01295581319334317 -0.001939039612645578 -0.015125699862787738 0.00383987269181465 0.037859665346712625 0.03728233101332584 0.03936856668421037 0.03525542738996322 0.04678938484135632 0.027823413195325684 0.030082531384639604 0.028321149881080608 0.043326129871734606 0.04183955956846854 0.030486576768033177 0.032754437902454615 0.019687453485785978 0.014692775825086286 -0.007990336401048166 0.014550055381677035 0.03777237281701997 0.03697040710365751 0.05488631547068254 0.04173569451990701 0.03668081983409058 0.018125699921854175 0.0393471313856792 -0.0022428820047470247 0.035713064780561916 0.03760275946759069 0.03576752694427742 0.036711510084274326 0.030887527729393106 -0.008334780937407337 -0.018292915728284502 0.031040575096606977 0.057627071172208534 0.02431194879101651 0.02023416783526459 0.065983408000553 0.012180686100692055 0.021507152365864198 -0.002082252585055933 -0.0022154249071422386 0.0004154983561728327 0.025622857660957593 0.021266928500478077 -0.004025371213261638 0.005997436893137476 -0.014797646349826466 -0.011952030413721358 -0.004547260607546851 0.006300495883619129 0.0018991132899278246 -0.03197774510602933 -0.002698640340449031 0.007433145822425489 0.030841108650570694 0.01136637860543164 -0.01060659720791088 0.00810384451216477 -0.0111955768318847 -0.00395107618341777 -0.036012356329095024 -0.01231329177237421 -0.002514734386803048 -0.017090346026853772 0.01679537100554357 -0.0008058931741222622 0.004089055316884979 0.006932822723417804 -0.006690460886867344 0.026219765082087305 0.00895396238126729 0.022339105026021447 -0.010238724484152553 -0.043321586409802854 0.0015949736655844113 -0.015374751510125994 -0.04160095098851393 -0.025355507800891953 0.025741966133973223 0.008279606470620038 -0.006354666259924761 0.005322141276938372 -0.015551721535838859 -0.0011386271485317608 0.02058490567756045 -0.003671544140884177 -0.006649664739268144 -0.02532726683930794 0.006924178037813957 0.002955900070028319 
0.008894370606788948 0.008625789166866864 0.02795650247816232 0.0076557477544807635 0.07758599529504773 0.015074863372807794 -0.024313931384098368 -0.04102476566451896 -0.006100729472998132 -0.002417179649006726 -0.02400086085673587 -0.037261587140204555 -0.07633874003154192 -0.0037615995427279373 -0.02084066559090699 0.016654104624644582 0.0012090403282021404 2.9065373055046886e-05 -0.03813220953148181 0.03431830154438697 -0.008372495920071017 -0.014053964333085298 -0.002940845987750648 -0.041142662847040753 -0.004521665479294588 0.01347826167604535 -0.03231745262943618 0.015244132827087628 0.0449129755889198 0.05137272373164251 0.04512952119876716 0.008385998618813815 0.0005674452314541537 -0.0036065178556945704 -0.025896510089466352 0.017273225920363112 -0.012591519602370982 0.019531418796936525 0.016370433449357524 0.024326516878935354 0.04898710847262258 0.04592480915912754 0.014801908019743109 0.06402695128857033 0.07574976068557483 0.09072234099272188 0.06059975609218828 0.009678254803046047 -0.003734719956696793 -0.049545661122114885 -0.00036418906834720827 -0.01655532651753476 -0.009114974275277259 -0.02674262122241926 0.026979809464200828 0.024163424414597182 0.062021344461217244 0.05417898476254501 0.042171729118472424 0.10035208557129333 0.05751141048847529 0.09911055966154657 0.02977754370901869 0.004125538757366355 -0.051778657112078054 -0.08994559936293464 -0.056105504672385745 -0.015123879579334967 -0.018589547544170765 0.0027441368542934197 0.011836829572961269 0.017502583537013183 0.06699519382342294 0.0658459911346804 0.04649193355324284 0.06332270729422539 0.06998861022804707 0.0710215950246152 0.038269118687038334 0.02547741021350957 -0.0857168845731942 -0.07784857401304755 0.008284710604564994 -0.062022103413832595 0.02179020557010169 0.051723784982669566 -0.01655864798378651 0.017114224652704204 0.04703249800083283 0.035794468694490496 0.08372019211396133 0.08244226655252496 0.09084735844203425 0.04361216235066361 0.05198076634117795 0.01685428423186601 -0.040668776204325234 -0.06411280356530091 0.012391996737384314 -0.02104382240400624 -0.0024769706989713307 0.013308535499777644 0.04350129174189781 0.00851387377060848 0.05549485881397835 0.031127675727238038 0.07403637578531937 0.08531032915180048 0.08634020736041353 0.031000784517256717 -0.017031868045824135 -0.013251470391283859 -0.04351613625454205 -0.05185664922666369 -0.01924167053082856 0.02637699270046851 0.04108898860440387 0.07382962564690554 0.07305646725162013 0.05474772487401583 0.08850663709108311 0.03512155402714183 0.08491155052806718 0.08347214685134217 0.06905275362042317 0.012749000474836705 0.015373728887257727 0.022069315810266627 0.0014685809050327852 -0.03248332865187975 0.007644822210512504 -0.00735734148715965 -0.005949720031461553 0.06218919323412651 0.08321036797673494 0.11826810166138145 0.059498611726196714 0.05243128534513898 0.0526265956004812 0.04558396291282561 0.06620791477114249 0.018774348518759986 0.008982105068522764 0.008924797129259237 -0.06694656228629568 -0.03212972717827368 -0.05918104126227055 0.00863831235367205 0.06302576531775463 0.034850591556030174 0.06482783874405258 0.04417839639300788 0.03057609762368244 0.030743498852726016 0.01017992436362315 -0.009529288931524072 -0.0031845725100283677 -0.011175193780883814 -0.03510299901144621 -0.005759222126183882 -0.003237998485479016 -0.08214975506985424 -0.04258977598883578 -0.020195698233764683 0.0575659398252113 0.037232343563896764 0.027550515197564487 0.04077747735044148 0.01778281827530445 0.007657906893957328 -0.00015573558132922467 -0.056759755410698734 -0.03915121471166363 -0.007471515170412762 -0.04523873973121344 -0.024695590133056743 -0.008353139051180089 0.0005872773105281175 -0.004820483654094015 0.04350871389840207 0.02120840556326079 0.03479847948364219 0.039299391043210494 0.03235418162195944 0.03459412787549913 0.01936722497855623 -0.007788306360037386 -0.06692519213022745 -0.001540216221059601 -0.03693238167352257 -0.05531524274737204 -0.021666253570099974 -0.06115657239005907 -0.04633457298492222 -0.03560959242468759 -0.02831097698729372 -0.027867793648625322 0.0032242147261606923 0.03142931455989036 3.53987726289836e-05 0.01394418409776075 -0.021665167475703566 -0.033291249609897634 -0.03334973906668394 0.03405325357674415 0.00047091827395446737 -0.030445065280376264 -0.03348827047414815 -0.037052171456725264 -0.004211791288572996 -0.004045919054496872 -0.007512993068785932 -0.02543993584056476 0.01149277764678565 0.024672787951500907 -0.021636518511457672 -0.022207481642823032 -0.00492638975699445 -0.003840164170208867 0.006511430005170524 0.012867450013131148 -0.010888032106829667 0.03667327451217828 -0.001666133568373586 -0.028519512975428853 -0.010687979843680024 0.008519044887803525 0.0034082883879850943 -0.005936701123725789 0.0055678384713639985 0.017021251317235326 -0.0076345911966966004 -0.005171366505813696 -0.005489399173988221 0.008519837775765877 0.009585857582757632 0.01542950209036983 -0.0034407300793209195 0.04028167963841992 0.027285525483375903 -0.006809614540411276 -0.02793034792706849 -0.04364101998959639 0.003100001388827788 0.00977461889247152 -0.02436609570228421 0.042513341780725855 0.019621094265004982 -0.011643053496254592 -0.0011706950701033333 -0.00857517645263008 0.006904079841058566 -0.02175784658365732 0.03734687399859236 0.032547058291055364 0.02745718910454469 0.09668931700222823 
-0.04800461775192468 -0.052557802828087336 -0.04366139486163005 -0.06384779312782778 -0.011711829830578864 -0.0326490661024854 -0.03241510736532415 -0.021757643780451974 -0.05553017421231749 -0.003999739985109471 -0.03761151793879157 -0.043215206398339714 -0.05952929119243328 0.01297845104595284 0.025349192898822183 0.019176262398014118 -0.030766236471844857 -0.07646065961567416 -0.062155939374410454 -0.033549015592381555 -0.015854877479734047 -0.0011821728441567254 -0.03145787668978371 -0.035851743740223076 0.0014244888047593534 0.008991597189021469 0.0016667173731240701 -0.011260810050396019 0.012297742031274823 0.06981554724076128 0.044848263111863886 -0.015177699839489963 -0.03756217265283395 -0.07601635779415969 -0.05318986953400702 -0.031056256314032613 -0.017616790167263384 0.013435273049061173 0.004086223373464038 0.014456538342314766 0.02506431963278178 0.06991416782238287 0.015019287577389908 0.026785920590710357 0.004872706602399265 0.0543171266456694 0.018851470439081995 0.01863099413442894 0.008812887377061105 -0.02697526215084026 -0.009432333659770963 -0.02484246574727521 -0.015094441347534751 -0.019008325240875656 0.01764891306318 0.004648938472213507 0.0552545956142333 0.03923309839097795 0.05093879623613796 0.055794767098053547 0.021983456834343645 0.018921452004733167 0.011193542930159478 -0.0023853235719010647 0.001437078996155163 -0.03753770943762018 -0.01570027252808736 0.01297754292782017 0.026732210817482137 0.01769425519046467 0.026667651941791704 0.01275906609868181 0.04526268852380892 0.05906743516168529 0.05228230689512659 0.051067451517082994 0.012688640134438314 0.04987909462484336 0.03429798572312603 0.009670030088052402 -0.038970688493791567 -0.04923678641103964 0.016793074309545523 -0.03556603875244433 0.04549912016472707 0.06827081787665668 -0.016411199292150718 -0.012908385589308078 0.04473486715454365 0.005943759941274151 0.04123795813228988 0.03347666609112577 0.06803334518900739 0.05465218330592131 0.04625500923208293 0.01782390739147896 -0.012081027430468821 -0.057380718279792235 0.00205413428429945 0.010977625324833533 -0.0032654097276558322 -0.010737366838177151 0.011876840336044452 -0.011686138973366875 0.04041627705421071 0.02198052349073051 -0.018744077891988935 -0.011824833163304637 0.06965014381716399 0.05638496444524218 0.03091335637531145 -0.012567688564110339 -0.04609035817675563 -0.03789703839679325 0.01645965257577975 -0.0009060736193850359 -0.02430934410701272 -0.004369244288947744 0.006707526106919129 0.005875258878109406 0.007737407991718177 -0.04352007771143907 -0.0004336584773631853 -0.0041399429784681595 0.05431084667597971 -8.89387257200732e-05 0.001809920586818755 -0.03559600561795517 -0.0010691430585374356 -0.011786125231019899 -0.02736141224756431 -0.02944451771369779 -0.020642343807761258 0.027300124217111938 0.0046234566532395134 0.004510884480632645 -0.007494695849498032 0.013206748402576737 0.007319993416916694 -0.003303579231152235 0.038044792994773834 0.01789395937046839 -0.018807123860248957 -0.01123853967457356 -0.04738482141928656 -0.051515319024468854 -0.07853429122964767 -0.04493229782569679 0.03006229028071288 0.007075900813783002 0.01157825504155884 -0.012820615513431232 -0.038093192642119925 -0.037674685207067106 -0.04904316169040444 -0.03651083271244936 -0.02182776021665713 0.0013562938308145267 -0.027215538336117378 -0.048988331309654735 -0.03366075242356722 -0.0662875337078784 -0.08972381366968761 -0.08990237313982924 0.0227755658888679 0.07025541205407254 0.03227553294979269 0.03295749383014983 -0.04015571946288442 -0.020237612374025597 -0.058262687067965224 -0.052820506606703406 -0.027429179686118667 -0.016818823513156955 -0.059979692963105284 -0.06394078247554404 -0.015850846470094195 -0.05161316553455306 -0.03917668671037027 -0.006973743724671116 0.0162178148168323 0.06328865744519689 0.08231087048015617 0.01569074596077967 0.01984179737912521 0.003892955318887241 -0.03308701440391342 -0.07287924022658561 -0.005842806219001223 -0.014794288135096223 -0.02434793788206932 -0.028164042380697373 -0.0551524522069693 -0.051921947149058435 -0.05324684585340845 0.0008862264507808412 -0.028454808321675615 0.056356732990845565 0.09448223626543915 0.01814873640403133 0.04963992528713195 0.04301626968404279 -0.026943687625128814 0.016852320274690302 0.06323371361974932 0.043713443815874685 0.0017773866494438203 -0.011867839760294742 -0.0016832317805993175 -0.00994829374187617 0.03465731534325136 0.038375909015715914 0.03304576688259294 0.03983549815114481 0.06832491345943499 0.061338145069394244 0.06424506654015219 0.07589516376427154 0.06237746853050219 0.04503050715839309 0.04872020413143574 0.026603052637641646 0.03213505654455228 -0.009537645006211112 0.02742878195301752 0.042223542586870194 0.0366033501358185 0.030915612535545072 0.0516139871185664 0.002997194011247955 0.06345620395775123 0.033801776252542264 0.03014182736249742 0.06384664198685469 0.07235759005820606 0.08989383287981305 0.0828121009870769 0.05879805292678792 0.06601101011034731 0.0668433619942991 0.009358630962314755 0.0030096022096158036 -0.030598372643059386 0.004000430714596428 0.016589246162800456 -0.02753042119260937 0.018547366327580302 0.015520281836459591 -0.011570080852887845 0.036382352744835186 0.046347728615969454 0.03137881424980703 0.01054577590119361 0.05077249432913755 0.06494474801809039 0.04990509704274248 0.10475804046177341 
-0.13292509385603296 -0.0907345309834301 -0.09396395748075506 -0.12158398685867676 -0.05488645907630165 -0.09676531409528602 -0.09320951568647363 -0.1593868963546895 -0.11254687778139127 -0.06387757495659355 -0.11102690200898185 -0.14223695326675662 -0.2370227905742179 -0.06699319046407047 -0.12232509519453401 0.03055779236146156 -0.11381457699802085 -0.12605865432916935 -0.13631692756528155 -0.0798809375324918 -0.05535239809140937 -0.07197182222091472 -0.0895591354394353 -0.13346939257533572 -0.036981726093777034 -0.05643805524622221 -0.05772128606630927 -0.04148594501662488 0.011756272325723651 0.1303715047533943 0.1252394074663432 0.07145912388432164 -0.13617523871632814 -0.10655908249978334 -0.09073393698058375 -0.10568124675090723 -0.0456993626287446 -0.03574962961059023 0.01320107873139654 0.024775682433489078 -0.026999591283904823 0.0013251184394481419 0.007997616287342003 0.08345999058794475 0.07406275086603763 0.15401728287781208 0.1432437293971402 0.09203606184008237 -0.011190651805890338 -0.05942909839512164 0.054043245652520236 -0.031082329497459038 -0.015893469949555417 -0.05651985570527587 0.07004423495196789 0.01876040848549578 0.14435426994414946 0.21037592034186964 0.09951109831082317 0.16392904092165003 0.0894562965337983 0.10596609878677671 0.09943466758599344 0.022802325147804073 -0.049958879703037196 -0.06529559428912339 -0.021713687613254165 0.015920865349380878 0.08805335037874121 0.06529465412304342 0.10810702566248945 0.10011662767586861 0.21815386953838406 0.1899158882121876 0.1267088570241046 0.14810032774044743 0.15728583377499603 0.12497100118972497 0.1389934703769952 0.09007777761455311 -0.03244010027039405 -0.03783254612600128 0.11973987823086042 -0.0433188911971479 0.13173265727811448 0.25750458085128136 0.058169447119118284 0.07410349179128105 0.15525548270415768 0.10566707378909493 0.1919653693774297 0.22949117237938546 0.2785799440206166 0.14687784759821482 0.11824717891431802 0.03235478028506924 0.004906625494066749 0.03636045557594133 0.09848559684165235 0.03871756755858749 0.03250219514352443 0.08204277397222731 0.1444505082652009 0.04367411380402351 0.16564290917143734 0.15755199593251176 0.12788738250586032 0.18391785340253047 0.2215438617288293 0.08782033988432307 0.001112453547786077 -0.061817131004850444 -0.06089255257534502 -0.029727644044754576 0.010480010295793757 0.07603103080421446 0.15502139039955332 0.22030970654851842 0.1583782315530513 0.05329229067141855 0.20211628731623718 0.08730011433156395 0.15880799300930276 0.10697164738636761 0.15293764676154292 -0.0035995616649053307 -0.06549881268334758 -0.08130389533264393 0.03150684756661106 -0.03444036742597203 0.034939862245084614 0.0022031445448463813 0.09358792968770388 0.14855902889837796 0.18121817698433107 0.22483425665710569 0.1398513933766075 0.11991776591383395 0.08322697122943042 0.08990827986861785 0.1988691894559725 0.01995562825126572 -0.06967465946656388 -0.09440306633761626 -0.060073458373929335 -0.0722863296761854 -0.15007612080365065 -0.03514831256852604 0.09400780689409186 0.07113798455512145 0.05992302097667067 0.027148635827449884 -0.028237372386462154 -0.015898315535427882 0.048823927113856705 0.047561477429850604 0.0955471040531238 0.06011885378277583 -0.08292727492264067 -0.04230103334312686 -0.044510113569895614 -0.13161596241122644 -0.16005164148079118 -0.07452536093499851 0.06395093537179665 0.08543911992618981 0.035320470388482635 0.06575527912425369 0.0706221038975576 0.010881400217436343 0.05487690508503773 -0.05974603925387916 0.012579086933978308 0.060680270881724216 -0.07176027846126011 -0.04290180281732026 0.04023196480332147 -0.035496855311193704 -0.016953494358391212 0.035538193177454006 0.07975262940163376 0.0886143067714361 0.1011108266375499 0.10320721526684867 0.1697136225868709 0.12805728556351104 0.09100429637033737 -0.0691653914217932 0.04228655824753653 -0.02507681352075418 0.003933564747017559 -0.05010555097923615 -0.15614451738924826 -0.062075341756237586 -0.08356113577815152 -0.015449849015646397 -0.11158890508877232 0.02702897605801234 0.03080907179308045 -0.014010873366170191 0.13080387374643127 0.00862766937466071 -0.00885547927068378 -0.0003258394999267315 0.12242875727312334 0.08653905165596394 0.0333471899766106 -0.08273672713564098 -0.05906009410980845 -0.011851892619934235 -0.03424885585827201 -0.04981076195125045 -0.06439313785884326 -0.04173207063994464 0.03188435347884369 -0.0527983856474448 -0.01391292741337913 -0.026506271685992983 0.01064752369589592 0.08505008217189948 0.06286428805347047 0.03462439111267539 0.17151373962639113 -0.0012679701160493205 -0.05722216497170474 -0.06061647650371811 -0.03258480677645326 -0.0005288244217831236 0.028024514092931944 -0.061267118407688434 -0.041635565001145465 -0.03821130618520701 -0.012503403422522617 0.056322342830980116 0.04329893511785569 0.08662648840233853 0.11886423748042879 0.08127332631378979 0.23582328239465963 0.053478401414749376 -0.07166080556285548 -0.07550707933176573 -0.15472046246399832 -0.0011329659401542996 -0.004242417534355508 -0.11435078392978848 0.11006968828923037 0.058003361064400884 -0.02124605272229317 -0.006696841615311282 0.06239353123014781 0.12524697845429608 0.017135489874571617 0.10533561426553187 0.1158265400344471 0.04628362718884443 0.19573646195445238 
0.06908850760458041 0.04365817921070059 -0.006511385914471326 0.01348924295538135 0.013123260418194822 -0.010809232097733388 -0.03306807137619836 -0.06767407554503137 -0.02554096475053086 -0.02348403828622989 -0.014133151599676649 0.001613335253087154 0.0018818476082894222 0.01892910794059738 0.02843154925882166 0.09012290207156042 0.014522089100566005 0.03705591678366303 0.03018072543779568 0.035789828368432974 0.04165486644769148 0.014033764611179736 0.011420113183657557 -0.027358723955705447 -0.01273328276229414 -0.033536696444838685 -0.020975874119471695 0.04592913175169426 0.030893208906792227 -0.014665306829114958 -0.007887807996806231 0.014552008743797843 0.038745476060005654 0.03183492108501152 0.01018572114814861 0.08305428574015053 0.03697482658110007 0.02907663988992473 0.021412286221903387 -0.01643535378533094 0.01896293369954532 -0.07160527578856637 -0.015147289082872413 -0.03566403465559782 0.016646294983824573 -0.004679992190872987 -0.04753529128781952 -0.05173330576067252 -0.018173092724528387 0.01050893376704711 -0.03268327018274016 -0.020321399009166668 0.01378169851510909 -0.009888232541962841 -0.022185502271341088 -0.029156809710406836 0.005561824794983942 0.024081834961641374 -0.009981122825343703 -0.022001043424679876 -0.051607108899160585 -0.023079154931571883 -0.1057418304399743 -0.08950581178915488 -0.033368839811874544 0.01107056402273387 0.00021642561937677636 -0.05945158472840047 -0.029992548117453274 -0.00722834947779369 -0.05066956361938572 -0.028653831895148453 -0.025779924926894255 -0.02807988384756475 -0.04766817107605545 -0.05801411920800843 -0.0012460851016530717 -0.08988524893211942 -0.12684188973524124 -0.030842640960693675 -0.031886043497496346 0.0326528865853221 0.017509656830946928 -0.007159566234526573 0.00747152521142547 0.011646721095710858 -0.0014203285358274 0.0041021449197555316 -0.0065798672492366666 -0.004946519376765596 -0.005744763640247478 -0.021479144395226663 -0.01273270209160971 -0.0990550299261558 -0.08603474578839652 -0.053040952931779094 -0.011943799080802649 0.02091830040236396 -0.045623363956248844 0.008721234621616449 0.04211335009817971 0.0379932571713147 0.08491249531294391 0.06185889154624402 0.05514686417911853 0.05752545849137666 0.09908939103353016 0.03988484891569411 0.036724082368393814 -0.02542996243441939 -0.07181798622509578 -0.0703137871122595 0.05729418876944611 0.0702273894180298 0.06986729815926392 0.06888355562116377 0.08541886183389523 0.07743894180703594 0.044830134509994464 0.03091623824777998 0.09713308303867244 0.08035631720653531 0.11351670323573448 0.10398359882327096 0.06649600884919007 0.032424583914724935 0.0044796694747830145 -0.04234138697440879 0.09945153036486332 0.07596501966857128 0.09181427660540686 0.04693704833657954 0.0763558805342143 0.07006224124533485 0.090677119637718 0.095159013871975 0.05933170604066447 0.10357877136252085 0.0770312641674831 0.14459428615642955 0.05788924417041274 0.07155230571940238 0.041208819383283295 -0.008768487302885476 0.09551267765958407 0.09230197398926707 0.10485593955463021 0.04749263843404756 0.048510589752684484 0.05847650873835713 0.08565669694314637 0.08199000520935798 0.10791755687235217 0.1403878912299652 0.1540439254142469 0.1507434065230342 0.0766418923290578 0.03720070315208283 -0.005567290446635381 0.012384296606608313 0.07465351834274321 0.08041027846907685 0.07655418388388963 0.10681609326927545 0.05951665895851444 0.007479289153614918 0.02057553630541413 0.09494627145145268 0.13610700993921374 0.12410919977546081 0.10085886550291695 0.06257010535866385 0.03157866138467509 0.03462645321726679 0.03800995693619866 0.06183208109994134 0.004738434436461554 0.07443602246734168 0.08707416655213207 0.0963390021723544 0.03150830168429524 0.01696098722014062 -0.004161998044140832 0.0957351514597613 0.10671754213907911 0.09418924776661534 0.08026359839410344 0.06873423198538904 0.05560490163226384 -0.004315357025750755 0.02191697569339507 -0.01216074797822766 0.013991684748861808 0.027599339106354377 0.04162418381375271 0.0491286750933122 0.05309088957440756 5.236821986855107e-05 0.0055146947844095535 0.047322244785493385 0.040216451395027636 -0.03740432169898346 0.016360537659614816 0.01919498709813519 0.024352648158095538 0.014093406788114831 -0.02733461797779931 -0.019375836212708854 -0.031375781517507466 0.006306653030663273 -0.05999523228016468 -0.02708171824540505 0.0067574841898021334 0.002254971861953986 0.023840905594379708 -0.06838713959673336 -0.06315088617419409 -0.09939083735059481 -0.046199436281116564 -0.043873911110271634 0.004045849116345041 -0.0020853469931022607 -0.008044934267738396 -0.05363099370927981 -0.07611644034473591 -0.04943013441524561 -0.04318987094559841 -0.040753401412170535 -0.06060678420879632 0.010494342537443298 -0.050289820058032945 -0.03762158518451882 -0.06105265345844589 -0.08524414684853832 -0.06126101803398286 -0.1037218723529672 -0.05500681587235466 -0.047331075524854695 -0.010041312203839903 -0.02684619696478902 -0.040826048263532096 0.016031032350825192 0.005587269910819477 -0.031070810581300554 -0.04897559509727297 0.03928064226327464 0.014225431854632544 -0.008743618340132129 0.024557643979743745 -0.03024805203264792 -0.023977101869672945 -0.00359782846527161 -0.04392731148857493 -0.0271253735442655 -0.023093505464654083 -0.01588558850538246 0.05108423301458131 
