-0.24460115041646688 -0.008701912441439983 0.7477086116559045 -0.5417442940666035 -0.5799500779929448 -0.18416205341582714 
0.11053371709183034 -0.004894225519311074 -0.574098593888703 0.19168569309410488 0.17295066384923172 0.07433890255448071 
0.3343402697310136 -0.014708915913617227 -0.13273623008862356 -0.1819595309654766 0.5229394953065235 -0.10228753886973448 
0.22035983925821334 -0.006298401998859432 -0.4662745877983757 0.21711809868334384 -0.10291414023798923 0.12667027338214706 
-0.3058112456512798 -0.0012469522172087635 0.3692103852183413 -0.08053349812559106 -0.1873319015778703 0.17495304434002584 
-0.20611574947406125 -0.003608588932358083 0.21879502292186456 0.054149057714056634 -0.15957800212701473 0.18580658437397343 
-0.2480835942583929 -0.008664896564335391 0.48031449571165874 -0.3762639399958658 0.1642149070013534 -0.2175308636041969 
-0.19087424317211374 0.03344733128618414 -0.5088165843360523 0.41816511637496184 0.21697397864086027 -0.01767485505473118 
0.31074317177222677 -0.015131756439329432 0.053326421383608116 -0.04170616199209995 0.1947347192330212 -0.2015993476792106 
0.2208711918877769 -0.012424203144432882 -0.21310284905317683 0.30425549810972485 -0.2715775306998476 0.14000485429084905 
