#hidden: 51
#output: 10
-0.0933935793182738 -0.033502543009760834 -0.03995636502027918 -0.2052427077932393 -0.22460794758134628 -0.339810795357654 0.24046939993542948 0.15252999325989502 0.41626008302822176 0.4168947819844009 -0.03409133802662657 0.1563902390877232 0.1835705591029328 0.04808611184743549 -0.16005346364456927 -0.020155267954050503 -0.331489562454986 -0.37604842422652024 -0.24290111191299396 -0.2516583015064302 -0.16120186408048126 0.39519535970202624 0.17896352123291298 -0.2738292614302557 -0.07464011111991183 -0.3542877471744622 0.7117553701841529 -0.07071462352654646 -0.04591679831676197 -0.2154145731056066 0.4636709244088897 -0.02737836316405942 0.3932716092595191 -0.11677225777317454 0.6273222174046653 -0.01806173773033586 -0.17566079131345227 -0.10121579519765152 0.2872794643075678 -0.07562547712804961 -0.40382759403324653 -0.17007770921906595 -0.23677669684040187 0.08819558997716964 -0.17633984049527812 -0.06682877823648582 -0.13416830605706753 -0.26376227555581866 0.0057597300599367875 0.3946463453858978 -0.19319129501695073 
-0.2008068888524243 0.07089763505453735 -0.39519493837612407 0.019476959353752498 0.029844517705924372 0.2181130106852567 -0.16982069698968358 -0.5194334573606263 -0.30157654084251234 -0.11863763380292064 0.23392186162401757 -0.43534926813530356 -0.10437235938687257 -0.03000096647719026 0.4119424624503038 0.45403620373588405 1.1378082298220382 0.030594164368640226 0.17539837239951683 0.2503451003886804 0.3176987141523511 -0.11119039453026404 -0.12498024040387232 0.8052211264366292 0.013519946399601444 -0.5922211081799058 -0.3001289015755592 -0.11912185781636085 0.14553772195740636 -0.2535806771191779 -0.13247638935523964 -0.08923609428792206 -0.26919104107561864 -0.4231215998326036 -0.20163746590882087 0.06929010138706229 -0.18735198694743865 -0.10646395748506493 -0.10672224699993836 -0.0831133370388993 0.025733915318604635 0.060994511876097744 0.004270511842297831 -0.12039718635309803 0.07769006797969683 -0.18185516833572177 -0.2261749867294371 0.265747237343578 -0.007433747134324426 -0.4966581699828914 0.3939388147478713 
-0.17624894969181473 -0.03593766147867716 0.006711980888885268 0.3019385625240272 -0.16926446204359047 0.48925587964796396 -0.30012700130434017 0.8576650745465616 -0.4882010941642399 0.4540779119566213 0.0021646911970144055 0.15765421731063145 0.0022793335921139613 -0.07418201025312865 -0.019193195035399794 0.21149419812538295 -0.252823186599524 -0.34994954036774545 0.0827896703006975 -0.46776975467979953 0.45687047282670457 -0.10839911110740762 0.08747594277375542 -0.5010503177859978 -0.22340359585931177 -0.6394832374839285 -0.23179451252594008 -0.16690360689841288 -0.1044598028106299 -0.31657043250623884 -0.09154758424891032 -0.0255667868547167 0.7211837359900027 0.030115844544951417 -0.016798833742679598 0.15027401031772827 0.502311571311777 -0.2476548247620558 -0.07286195123513287 -0.22485092587678007 0.755672450740695 0.03178785718708163 -0.23320005834217944 0.34856404419310166 -0.32397644779728724 -0.1685197914810083 -0.14289622192839296 0.10121393845428721 0.002617639277474644 -0.3348057249843514 0.04720196735954015 
0.2418454472758786 0.02110019258417693 -0.2494954219746103 -0.2525482017669755 0.3923397606612795 -0.2837367633720659 -0.19120688155346727 0.35506283529196614 -0.41558472211188097 -0.16804846567207074 0.00705752719648011 -0.17677160545826945 -0.028794280885812373 -0.010521919013155094 -0.009297772941610336 -0.01553219351042929 -0.021624799789108487 -0.1886460568042965 0.06041046903181621 -0.03471412142342776 0.2237763956859562 0.03784028325091292 -0.12330906096840075 0.20588808425881858 -0.055942655229185935 0.0038174987614098725 -0.5118439351133433 0.6845174249722841 -0.25420592269309394 0.8427424773805055 -0.17916913337759496 -0.028238801841396752 -0.31845536107586214 -0.14143438747175566 -0.12796799365909353 -0.2507192057929907 0.42920933666860517 0.6045475648176506 -0.06597869112308292 -0.08637707750337488 0.07621264456334258 -0.11422826490626078 -0.07145897629983036 0.486996133289765 0.6717050864798184 0.03240955119898347 -0.15898868080985776 0.32520306072892874 -0.003349087630053212 -0.26905151786391285 0.023212026049072198 
-0.21372645766318973 0.14052167837526558 0.333223035046435 -0.1649632731094001 -0.19762134910001344 -0.27877194017021467 0.9123464865770987 -0.5412040753062357 0.1278337125976137 0.2844055089388904 0.09280791789557871 -0.0364525802445032 0.01838110725332441 0.22276316796886433 -0.08691476211853177 -0.132556711412446 0.19407131352110962 0.31754086035014517 -0.014237094390124164 0.594481909871136 -0.6000267682821052 -0.1889962264378723 0.10600342557583932 0.35320372488973456 0.5537016514229117 -0.27642524617157477 0.4609848817606707 -0.08314073116231249 0.006646120888938131 -0.229842003412351 -0.4813326177105276 0.09947580362718547 -0.34851223312384155 -0.34740208691624275 0.23994169030758536 0.6034196169198134 -0.355018035869332 -0.22175209599457493 0.24308171383345528 -0.1227394218261101 -0.11131192399064678 -0.11919234431703768 0.2604091335650918 -0.2216864851648398 0.1010561196834697 0.08864360549442026 0.13898345287924427 -0.31530051757667227 0.013115951270676142 -0.30705928534067395 0.23840138858129953 
0.0488139524958697 -0.03344940420817479 0.27848647523683556 -0.22547014043266347 0.05292262034851456 -0.26252799540661526 -0.2787773387778551 0.2079663383953496 0.9601315687467931 -0.09108556040701957 -0.0038513876719128413 -0.26695051948312926 -0.06927839999940774 -0.10235191227656126 -0.3048606747743438 -0.09221069534291745 -0.7891379622753729 0.056750419582758845 0.46501034486946513 -0.21940948892774534 -0.19558469505967319 -0.04234319901973947 -0.06452165601447485 -0.5332547699648024 -0.023039603427975102 0.7370059590960537 0.13708828724636674 0.057782722169293865 -0.13209314686782922 0.4519392056475606 -0.20636674748580222 0.019720534205877296 -0.15714433438756628 0.5267223273625827 -0.3884094585924549 -0.27815833264941664 -0.0592022209136742 0.1745344911527198 -0.13978831291606106 0.7687587093335838 -0.24032939620245256 0.27903838768512185 -0.058821080699094155 0.0378829177105458 -0.0131413819675569 0.06628242844878313 0.07369583318787157 0.15360069614041533 0.009067467539268978 0.31045392428030855 0.22456920923226403 
0.08847281610339451 0.02121269958635812 0.07715512957147751 0.28581710509718716 -0.11802345416938842 -0.07566200060532075 0.4143224288447475 -0.35353348975878734 0.3168824592691986 -0.14809835852535128 -0.008777696866286624 0.6646469367017408 -0.04311257018119769 0.08970319938547408 -0.17803344164329818 -0.11779714801053282 -0.36725931895303454 0.26560289826631367 0.2239560719654176 -0.08631083269882342 -0.632321560595874 -0.20925241133434455 0.16561018938993377 -0.3927780905287769 -0.20174726278564395 -0.2546978977868132 -0.2050492954178134 -0.10241806570800213 0.03205974769065006 -0.09414627125452464 -0.38311100487068306 -0.0495321543159475 0.17309081177516908 0.8357597991148329 0.3389029036069638 0.20657186870395042 -0.3010233120275107 -0.13923065029624784 0.07091504808062565 0.299073809098036 0.39264326505174524 0.34778458383879784 0.22819634380568055 0.17732107092893276 -0.13800115745015767 0.4166013332155169 -0.0958418555824612 -0.2016719427130626 0.009473147591041833 -0.4460510696302409 -0.23866606656070086 
0.22848696638180221 0.022187932680691 0.43346324835904754 0.6563088657836564 -0.029099185775352622 0.9452515672917106 -0.19912336257818614 0.07915875010337334 -0.21263398182074011 -0.20005270905355843 -0.13214915072214142 -0.28699479318157445 0.18678181367957064 -0.04912204221579686 0.27246376856588234 -0.13921132418433638 -0.08317314342193981 0.42198058092063623 -0.19167232700387457 0.16912379426964327 -0.3400157615572614 -0.11654686580616738 -0.002598760847651307 0.20424848801060047 0.29192555562190203 0.34185664318034314 -0.3362894801991684 0.08423543077766246 -0.3108851940224952 0.07959895517201325 -0.35675267956209317 0.0778952874208493 -0.27412720020395054 -0.45992302388559414 -0.1168262293163604 -0.3538304477052089 0.45416233458448846 -0.077151145822311 0.06738765380600117 -0.3126892997892798 -0.11363579153571125 -0.18282656898347402 -0.16145145740102176 -0.30473485622751395 -0.1592874034449074 -0.02312653743140673 0.6901753638331584 -0.18930405672133613 -0.009712238445490181 0.16890612382117212 0.15780306283069626 
0.1397252722953939 -0.07851426658975906 -0.2979286478288727 0.15192578082563413 0.053551572107586654 0.08779426848850189 -0.07446948502037778 -0.14164414948014073 -0.2753151350650287 -0.21470596272002462 -0.10317928246384349 0.7159957883875255 -0.1573450676067537 0.0415596266270797 0.013465781680018865 -0.1786503616837758 0.14761637470637592 0.15177986338845695 -0.32268377034488127 0.07152328761547345 0.19803692866704165 -0.04924624739807203 -0.10397017457873936 0.021949282345262854 -0.1909739323520047 0.32124193594468325 -0.014365727241091518 -0.10271762357409554 0.3235857998520058 -0.2463545312085722 0.551912080591684 -0.030616277110283287 0.37452612141547176 0.43696185058342407 -0.038729682760726615 0.2991350513528231 -0.11616410174345086 0.025034677228050695 -0.12652036746008913 -0.1419600870327579 0.1636106871567959 -0.08781585612886998 0.2648889341152108 -0.24727728733463195 0.0623663115657537 0.054382355217771926 -0.2116484534344461 -0.1419074118725947 0.014846179670366904 0.23946192673454084 -0.4445512069221799 
-0.07235931600782662 -0.11935947519634718 -0.1455907098303903 -0.5541624188080169 0.16658986233018488 -0.5016741094607395 -0.37347480088933727 -0.09152825047920628 -0.09734691204367514 -0.18746852069426748 -0.03952833797837462 -0.4861607374675494 0.05107793192267894 -0.16689579688324743 0.04706344512414605 0.028370528510380202 0.334209484372663 -0.28325343556174226 -0.24298682146118733 -0.07758318212864211 0.7291531980487166 0.4598660926565877 -0.12284294246667708 0.11055599528512086 -0.08355171370621794 0.7246616189239279 0.34921477377357013 -0.2299586692507802 0.3103382778572714 -0.07759655810242959 0.8282388779573074 -0.003955139944497123 -0.2488958003235663 -0.3224527955979078 -0.31089393022779227 -0.4371152355233418 -0.2467027111971334 0.18220455304993127 -0.12197076366189244 -0.03629167683459962 -0.5844771493248075 -0.0784553438745271 -0.013750055112366375 -0.2472995476333429 -0.08727171903537706 -0.1793502809270726 0.009539837432693446 0.27042962822517463 -0.004678677961456839 0.6882325822614421 -0.1959148660086903 
